{"learner":{"attributes":{"best_iteration":"74","best_ntree_limit":"75"},"feature_names":["CryoSleep","Age","VIP","RoomService","FoodCourt","ShoppingMall","Spa","VRDeck","Deck","Side"],"feature_types":["i","float","i","float","float","float","float","float","c","c"],"gradient_booster":{"model":{"gbtree_model_param":{"num_parallel_tree":"1","num_trees":"225","size_leaf_vector":"0"},"tree_info":[0,1,2,0,1,2,0,1,2,0,1,2,0,1,2,0,1,2,0,1,2,0,1,2,0,1,2,0,1,2,0,1,2,0,1,2,0,1,2,0,1,2,0,1,2,0,1,2,0,1,2,0,1,2,0,1,2,0,1,2,0,1,2,0,1,2,0,1,2,0,1,2,0,1,2,0,1,2,0,1,2,0,1,2,0,1,2,0,1,2,0,1,2,0,1,2,0,1,2,0,1,2,0,1,2,0,1,2,0,1,2,0,1,2,0,1,2,0,1,2,0,1,2,0,1,2,0,1,2,0,1,2,0,1,2,0,1,2,0,1,2,0,1,2,0,1,2,0,1,2,0,1,2,0,1,2,0,1,2,0,1,2,0,1,2,0,1,2,0,1,2,0,1,2,0,1,2,0,1,2,0,1,2,0,1,2,0,1,2,0,1,2,0,1,2,0,1,2,0,1,2,0,1,2,0,1,2,0,1,2,0,1,2,0,1,2,0,1,2,0,1,2,0,1,2],"trees":[{"base_weights":[3.6743933E-1,7.6567084E-1,-2.942358E-1,-3.5799567E-2,8.277209E-1,-5.5054677E-1,4.309388E-2,-6.632391E-1,2.428734E-1,9.320009E-1,2.0516126E-1,-5.9937733E-1,1.1098266E0,1.9303654E-1,-1.07284814E-1,6.122445E-2,4.1797748E-1,1.0570786E0,4.1217968E-1,-5.4009866E-2,1.1497006E0,-6.236579E-1,7.155963E-1,1.1925466E0,-2.5544848E-8,1.7906454E-1,1.0909091E0,-4.0856037E-1,-6.841849E-2],"categories":[],"categories_nodes":[],"categories_segments":[],"categories_sizes":[],"default_left":[1,0,1,0,1,1,0,0,0,1,1,1,0,1,0,0,0,0,0,0,0,0,0,0,0,0,0,0,0],"id":0,"left_children":[1,3,5,7,9,11,13,-1,15,17,19,21,23,25,27,-1,-1,-1,-1,-1,-1,-1,-1,-1,-1,-1,-1,-1,-1],"loss_changes":[8.14879E2,9.602771E1,1.00520546E2,2.458186E1,1.1612451E2,5.4221085E1,1.1357433E1,0E0,3.0738697E0,9.932361E1,6.33014E1,2.0954865E1,1.7646942E0,2.9674091E0,2.9189312E0,0E0,0E0,0E0,0E0,0E0,0E0,0E0,0E0,0E0,0E0,0E0,0E0,0E0,0E0],"parents":[2147483647,0,0,1,1,2,2,3,3,4,4,5,5,6,6,8,8,9,9,10,10,11,11,12,12,13,13,14,14],"right_children":[2,4,6,8,10,12,14,-1,16,18,20,22,24,26,28,-1,-1,-1,-1,-1,-1,-1,-1,-1,-1,-1,-1,-1,-1],"split_conditions":[5E-1,1.25E1,5.5E0,5.5E0,1.3085E3,3.1E1,5E-1,-3.3161957E-2,5.5E0,5.805E2,1.3725E3,5.5E0,1.8015E3,2.5E0,3.5E0,3.0612226E-3,2.0898875E-2,5.285393E-2,2.0608984E-2,-2.7004934E-3,5.7485033E-2,-3.1182894E-2,3.5779815E-2,5.962733E-2,-1.2772424E-9,8.953228E-3,5.454546E-2,-2.0428019E-2,-3.4209245E-3],"split_indices":[0,1,8,8,4,3,9,0,1,5,6,7,4,6,1,0,0,0,0,0,0,0,0,0,0,0,0,0,0],"split_type":[0,0,0,0,0,0,0,0,0,0,0,0,0,0,0,0,0,0,0,0,0,0,0,0,0,0,0,0,0],"sum_hessian":[3.0906665E3,1.9293333E3,1.1613333E3,1.3866666E2,1.7906665E3,6.5955554E2,5.0177774E2,4.222222E1,9.6444435E1,1.5333333E3,2.573333E2,6.413333E2,1.8222221E1,2.511111E2,2.5066666E2,4.7999996E1,4.8444443E1,1.2351111E3,2.982222E2,2.0266666E2,5.4666664E1,6.3022217E2,1.1111111E1,1.6888887E1,1.3333333E0,2.4844443E2,2.6666665E0,2.7555553E1,2.231111E2],"tree_param":{"num_deleted":"0","num_feature":"10","num_nodes":"29","size_leaf_vector":"0"}},{"base_weights":[3.8231802E-1,-1.6059447E-2,1.0435904E0,1.252715E-1,-3.7068447E-1,1.2994113E0,7.0541435E-1,3.5465613E-1,-3.0772805E-1,-3.915725E-1,7.113402E-1,1.3482096E0,-3.9884397E-1,5.539885E-1,8.543046E-1,6.29058E-1,-2.65094E-1,-4.478823E-1,1.6683514E-1,-4.244124E-1,2.6582274E-1,9.1764706E-1,-4.2857146E-1,1.3724697E0,-2.7522977E-2,-5.2349E-1,2.7272725E-1,5.6792873E-1,-5.4545456E-1,8.6458796E-1,-2.0689659E-1],"categories":[],"categories_nodes":[],"categories_segments":[],"categories_sizes":[],"default_left":[1,0,1,1,1,1,0,1,1,1,0,1,1,1,1,0,0,0,0,0,0,0,0,0,0,0,0,0,0,0,0],"id":1,"left_children":[1,3,5,7,9,11,13,15,17,19,21,23,25,27,29,-1,-1,-1,-1,-1,-1,-1,-1,-1,-1,-1,-1,-1,-1,-1,-1],"loss_changes":[8.144731E2,9.679376E1,9.963965E1,1.3727481E2,1.2716812E1,5.527942E1,1.0862259E1,1.5376924E2,3.1919224E1,1.1782761E1,2.9279037E0,2.1475952E1,1.7518363E0,4.173752E0,2.9252472E0,0E0,0E0,0E0,0E0,0E0,0E0,0E0,0E0,0E0,0E0,0E0,0E0,0E0,0E0,0E0,0E0],"parents":[2147483647,0,0,1,1,2,2,3,3,4,4,5,5,6,6,7,7,8,8,9,9,10,10,11,11,12,12,13,13,14,14],"right_children":[2,4,6,8,10,12,14,16,18,20,22,24,26,28,30,-1,-1,-1,-1,-1,-1,-1,-1,-1,-1,-1,-1,-1,-1,-1,-1],"split_conditions":[5E-1,3.4E2,5.5E0,2.05E2,4.126E3,3.1E1,5E-1,3.495E2,1.3315E3,1.3585E3,2.7345E3,5.5E0,3.43E2,2.5E0,4E0,3.14529E-2,-1.3254701E-2,-2.2394115E-2,8.341758E-3,-2.122062E-2,1.3291137E-2,4.5882355E-2,-2.1428574E-2,6.862348E-2,-1.3761489E-3,-2.61745E-2,1.3636363E-2,2.8396437E-2,-2.727273E-2,4.3229397E-2,-1.0344829E-2],"split_indices":[0,3,8,6,4,3,9,7,4,5,6,7,4,6,7,0,0,0,0,0,0,0,0,0,0,0,0,0,0,0,0],"split_type":[0,0,0,0,0,0,0,0,0,0,0,0,0,0,0,0,0,0,0,0,0,0,0,0,0,0,0,0,0,0,0],"sum_hessian":[3.0906665E3,1.9293333E3,1.1613333E3,1.3799999E3,5.493333E2,6.5955554E2,5.0177774E2,9.0222217E2,4.7777774E2,5.3955554E2,9.777777E0,6.413333E2,1.8222221E1,2.511111E2,2.5066666E2,6.253333E2,2.768889E2,3.6888885E2,1.08888885E2,5.1422217E2,2.5333332E1,8.444444E0,1.3333333E0,6.3022217E2,1.1111111E1,1.5555554E1,2.6666665E0,2.4844443E2,2.6666665E0,2.4844443E2,2.222222E0],"tree_param":{"num_deleted":"0","num_feature":"10","num_nodes":"31","size_leaf_vector":"0"}},{"base_weights":[-7.4975747E-1],"categories":[],"categories_nodes":[],"categories_segments":[],"categories_sizes":[],"default_left":[0],"id":2,"left_children":[-1],"loss_changes":[0E0],"parents":[2147483647],"right_children":[-1],"split_conditions":[-3.7487876E-2],"split_indices":[0],"split_type":[0],"sum_hessian":[3.0906665E3],"tree_param":{"num_deleted":"0","num_feature":"10","num_nodes":"1","size_leaf_vector":"0"}},{"base_weights":[3.5074502E-1,7.2351956E-1,-2.8504175E-1,5.89173E-1,1.0569085E0,-5.3726894E-1,4.1790407E-2,3.6958462E-1,9.9837655E-1,1.0764617E0,-3.9377164E-2,-5.8964545E-1,9.3043774E-1,1.8533494E-1,-1.0324688E-1,1.04743734E-1,9.5795065E-1,1.1270233E0,5.5070376E-1,1.1067446E0,4.3518856E-1,-3.9012766E-1,6.129228E-1,-6.110683E-1,6.752231E-1,1.0542542E0,-2.348661E-3,1.7186406E-1,1.037986E0,-4.0011346E-1,-6.517056E-2],"categories":[],"categories_nodes":[],"categories_segments":[],"categories_sizes":[],"default_left":[1,0,1,1,1,1,0,1,1,1,0,1,1,1,0,0,0,0,0,0,0,0,0,0,0,0,0,0,0,0,0],"id":3,"left_children":[1,3,5,7,9,11,13,15,17,19,21,23,25,27,29,-1,-1,-1,-1,-1,-1,-1,-1,-1,-1,-1,-1,-1,-1,-1,-1],"loss_changes":[7.391295E2,8.7419556E1,9.507691E1,1.25730255E2,1.2117981E1,5.0584473E1,1.0495064E1,1.4245499E2,2.7570007E1,1.0267151E1,2.7183948E0,1.7458649E1,2.6374874E0,2.7304373E0,2.810361E0,0E0,0E0,0E0,0E0,0E0,0E0,0E0,0E0,0E0,0E0,0E0,0E0,0E0,0E0,0E0,0E0],"parents":[2147483647,0,0,1,1,2,2,3,3,4,4,5,5,6,6,7,7,8,8,9,9,10,10,11,11,12,12,13,13,14,14],"right_children":[2,4,6,8,10,12,14,16,18,20,22,24,26,28,30,-1,-1,-1,-1,-1,-1,-1,-1,-1,-1,-1,-1,-1,-1,-1,-1],"split_conditions":[5E-1,3.4E2,5.5E0,2.05E2,4.126E3,5E-1,5E-1,3.495E2,1.3315E3,1.3585E3,1.902E3,5.5E0,1.8015E3,2.5E0,3.5E0,5.237187E-3,4.7897533E-2,5.6351166E-2,2.7535189E-2,5.533723E-2,2.1759428E-2,-1.9506384E-2,3.064614E-2,-3.0553415E-2,3.3761155E-2,5.271271E-2,-1.1743305E-4,8.5932035E-3,5.1899303E-2,-2.0005673E-2,-3.258528E-3],"split_indices":[0,3,8,6,4,3,9,7,4,5,6,7,4,6,1,0,0,0,0,0,0,0,0,0,0,0,0,0,0,0,0],"split_type":[0,0,0,0,0,0,0,0,0,0,0,0,0,0,0,0,0,0,0,0,0,0,0,0,0,0,0,0,0,0,0],"sum_hessian":[3.1167524E3,1.9646821E3,1.1520704E3,1.4023436E3,5.6233844E2,6.498872E2,5.021833E2,9.13852E2,4.8849164E2,5.525022E2,9.836258E0,6.280721E2,2.181508E1,2.5225082E2,2.4993245E2,6.3099884E2,2.8285315E2,3.7827115E2,1.1022049E2,5.268947E2,2.5607475E1,6.658053E0,3.178205E0,6.1812E2,9.952107E0,1.9143753E1,2.6713283E0,2.4951042E2,2.740405E0,2.733144E1,2.2260101E2],"tree_param":{"num_deleted":"0","num_feature":"10","num_nodes":"31","size_leaf_vector":"0"}},{"base_weights":[3.6477068E-1,-1.5167512E-2,9.796649E-1,1.2157961E-1,-3.617899E-1,1.212717E0,6.674612E-1,3.0710885E-1,-3.7958917E-1,-3.8237172E-1,6.815259E-1,1.2568681E0,-3.883646E-1,5.260508E-1,8.055439E-1,5.603355E-1,-2.5058722E-1,-5.0598216E-1,5.7610303E-2,-4.1466954E-1,2.5400913E-1,8.770244E-1,-4.2197967E-1,1.2787907E0,-2.698564E-2,-5.121006E-1,2.677211E-1,5.3924453E-1,-5.3701955E-1,8.1525993E-1,-2.0986E-1],"categories":[],"categories_nodes":[],"categories_segments":[],"categories_sizes":[],"default_left":[1,0,1,1,1,1,0,1,1,1,0,1,1,1,1,0,0,0,0,0,0,0,0,0,0,0,0,0,0,0,0],"id":4,"left_children":[1,3,5,7,9,11,13,15,17,19,21,23,25,27,29,-1,-1,-1,-1,-1,-1,-1,-1,-1,-1,-1,-1,-1,-1,-1,-1],"loss_changes":[7.286603E2,9.146583E1,8.5859375E1,1.2878851E2,1.1982918E1,4.8614563E1,9.56102E0,1.4284909E2,2.0714172E1,1.1121727E1,2.7259498E0,1.8688599E1,1.6823165E0,3.8733673E0,2.704956E0,0E0,0E0,0E0,0E0,0E0,0E0,0E0,0E0,0E0,0E0,0E0,0E0,0E0,0E0,0E0,0E0],"parents":[2147483647,0,0,1,1,2,2,3,3,4,4,5,5,6,6,7,7,8,8,9,9,10,10,11,11,12,12,13,13,14,14],"right_children":[2,4,6,8,10,12,14,16,18,20,22,24,26,28,30,-1,-1,-1,-1,-1,-1,-1,-1,-1,-1,-1,-1,-1,-1,-1,-1],"split_conditions":[5E-1,3.4E2,5.5E0,4.525E2,4.126E3,3.1E1,5E-1,3.495E2,1.3315E3,1.3585E3,2.7345E3,5.5E0,3.43E2,2.5E0,4E0,2.8016776E-2,-1.2529361E-2,-2.5299108E-2,2.8805153E-3,-2.0733478E-2,1.2700456E-2,4.3851223E-2,-2.1098984E-2,6.3939534E-2,-1.349282E-3,-2.5605028E-2,1.3386055E-2,2.6962226E-2,-2.6850978E-2,4.0763E-2,-1.0493E-2],"split_indices":[0,3,8,6,4,3,9,7,4,5,6,7,4,6,7,0,0,0,0,0,0,0,0,0,0,0,0,0,0,0,0],"split_type":[0,0,0,0,0,0,0,0,0,0,0,0,0,0,0,0,0,0,0,0,0,0,0,0,0,0,0,0,0,0,0],"sum_hessian":[3.1179102E3,1.9277465E3,1.1901637E3,1.3828451E3,5.449014E2,6.798148E2,5.1034885E2,1.0095163E3,3.733288E2,5.349812E2,9.920238E0,6.617807E2,1.8034124E1,2.5451247E2,2.5583638E2,6.942716E2,3.1524466E2,2.8948288E2,8.384591E1,5.0947266E2,2.5508532E1,8.6016035E0,1.3186336E0,6.50674E2,1.110669E1,1.535725E1,2.6768742E0,2.5187915E2,2.6333108E0,2.5360681E2,2.2295663E0],"tree_param":{"num_deleted":"0","num_feature":"10","num_nodes":"31","size_leaf_vector":"0"}},{"base_weights":[-7.3599136E-1],"categories":[],"categories_nodes":[],"categories_segments":[],"categories_sizes":[],"default_left":[0],"id":5,"left_children":[-1],"loss_changes":[0E0],"parents":[2147483647],"right_children":[-1],"split_conditions":[-3.679957E-2],"split_indices":[0],"split_type":[0],"sum_hessian":[3.030589E3],"tree_param":{"num_deleted":"0","num_feature":"10","num_nodes":"1","size_leaf_vector":"0"}},{"base_weights":[3.3543864E-1,6.8537885E-1,-2.7595147E-1,7.6335114E-1,1.6971159E-1,-5.244303E-1,4.0833674E-2,-4.0688176E-2,8.335168E-1,-8.6426884E-2,1.0245196E0,-5.7636154E-1,8.8000506E-1,1.7824782E-1,-9.901348E-2,-6.577145E-1,2.2950199E-1,9.4248503E-1,3.7061295E-1,-4.046796E-1,5.6783366E-1,7.1205896E-1,1.3403922E0,-5.9766155E-1,6.421096E-1,9.950944E-1,-3.8324671E-3,1.652583E-1,9.900846E-1,-1.3681021E-1,1.8546432E-1],"categories":[],"categories_nodes":[],"categories_segments":[],"categories_sizes":[],"default_left":[1,1,1,0,0,1,0,0,1,0,1,1,1,1,0,0,0,0,0,0,0,0,0,0,0,0,0,0,0,0,0],"id":6,"left_children":[1,3,5,7,9,11,13,15,17,19,21,23,25,27,29,-1,-1,-1,-1,-1,-1,-1,-1,-1,-1,-1,-1,-1,-1,-1,-1],"loss_changes":[6.7166125E2,8.013684E1,9.0004745E1,9.78479E1,5.7779686E1,4.7237747E1,9.692228E0,2.350967E1,8.00896E1,4.2636543E1,5.0491447E0,1.6435455E1,2.3680668E0,2.5179148E0,2.7151082E0,0E0,0E0,0E0,0E0,0E0,0E0,0E0,0E0,0E0,0E0,0E0,0E0,0E0,0E0,0E0,0E0],"parents":[2147483647,0,0,1,1,2,2,3,3,4,4,5,5,6,6,7,7,8,8,9,9,10,10,11,11,12,12,13,13,14,14],"right_children":[2,4,6,8,10,12,14,16,18,20,22,24,26,28,30,-1,-1,-1,-1,-1,-1,-1,-1,-1,-1,-1,-1,-1,-1,-1,-1],"split_conditions":[5E-1,1.3085E3,5.5E0,1.25E1,1.3725E3,5E-1,5E-1,5.5E0,5.805E2,7.135E2,2.8985E3,5.5E0,1.8015E3,2.5E0,4.45E1,-3.2885727E-2,1.14751E-2,4.712425E-2,1.8530648E-2,-2.023398E-2,2.8391683E-2,3.560295E-2,6.701961E-2,-2.9883077E-2,3.210548E-2,4.975472E-2,-1.9162336E-4,8.262916E-3,4.950423E-2,-6.8405108E-3,9.273216E-3],"split_indices":[0,4,8,1,6,3,9,8,5,7,6,7,4,6,1,0,0,0,0,0,0,0,0,0,0,0,0,0,0,0,0],"split_type":[0,0,0,0,0,0,0,0,0,0,0,0,0,0,0,0,0,0,0,0,0,0,0,0,0,0,0,0,0,0,0],"sum_hessian":[3.1374536E3,1.9952913E3,1.1421622E3,1.7328003E3,2.62491E2,6.39723E2,5.0243918E2,1.3911218E2,1.5936881E3,2.0266302E2,5.982796E1,6.1748035E2,2.2242712E1,2.5328558E2,2.4915361E2,4.192801E1,9.718417E1,1.2891777E3,3.0451044E2,1.3659865E2,6.606437E1,3.1712399E1,2.8115564E1,6.073724E2,1.010794E1,1.9568687E1,2.674026E0,2.504814E2,2.8041797E0,2.203908E2,2.8762823E1],"tree_param":{"num_deleted":"0","num_feature":"10","num_nodes":"31","size_leaf_vector":"0"}},{"base_weights":[3.4865397E-1,-1.4108961E-2,9.2312056E-1,-9.765291E-2,5.189182E-1,1.1506072E0,6.4869535E-1,7.1313846E-1,-1.7409536E-1,7.678941E-1,-4.1358194E-1,1.1895912E0,-3.521124E-1,5.002322E-1,7.76353E-1,1.2995179E0,4.4440004E-1,-2.9445416E-1,3.118756E-1,1.0755984E0,1.0302691E-1,-9.51515E-2,-7.2288096E-1,1.2070644E0,-3.1064507E-1,-4.695067E-2,-6.497328E-1,5.1274014E-1,-5.286443E-1,7.86855E-1,-2.738457E-1],"categories":[],"categories_nodes":[],"categories_segments":[],"categories_sizes":[],"default_left":[1,1,0,0,1,1,0,0,1,0,0,1,0,1,1,0,0,0,0,0,0,0,0,0,0,0,0,0,0,0,0],"id":7,"left_children":[1,3,5,7,9,11,13,15,17,19,21,23,25,27,29,-1,-1,-1,-1,-1,-1,-1,-1,-1,-1,-1,-1,-1,-1,-1,-1],"loss_changes":[6.5449194E2,8.58163E1,7.514111E1,1.0337136E2,6.0942406E1,3.9279053E1,1.0097092E1,2.2070648E1,8.918061E1,4.2124306E1,5.4148607E0,1.73302E1,1.5629892E0,3.5989227E0,3.4763336E0,0E0,0E0,0E0,0E0,0E0,0E0,0E0,0E0,0E0,0E0,0E0,0E0,0E0,0E0,0E0,0E0],"parents":[2147483647,0,0,1,1,2,2,3,3,4,4,5,5,6,6,7,7,8,8,9,9,10,10,11,11,12,12,13,13,14,14],"right_children":[2,4,6,8,10,12,14,16,18,20,22,24,26,28,30,-1,-1,-1,-1,-1,-1,-1,-1,-1,-1,-1,-1,-1,-1,-1,-1],"split_conditions":[5E-1,1.3085E3,5.5E0,1.25E1,1.3725E3,3.1E1,5E-1,5.5E0,5.805E2,7.135E2,2.8985E3,5.4E1,3.575E2,2.5E0,4E0,6.4975895E-2,2.2220002E-2,-1.4722708E-2,1.5593781E-2,5.377992E-2,5.151346E-3,-4.757575E-3,-3.6144048E-2,6.035322E-2,-1.5532254E-2,-2.3475336E-3,-3.2486644E-2,2.5637006E-2,-2.6432216E-2,3.934275E-2,-1.3692285E-2],"split_indices":[0,4,8,1,6,3,9,8,5,7,6,6,3,6,7,0,0,0,0,0,0,0,0,0,0,0,0,0,0,0,0],"split_type":[0,0,0,0,0,0,0,0,0,0,0,0,0,0,0,0,0,0,0,0,0,0,0,0,0,0,0,0,0,0,0],"sum_hessian":[3.1395662E3,1.9249673E3,1.2145988E3,1.6648448E3,2.6012247E2,6.623479E2,5.5225085E2,1.4272238E2,1.5221224E3,2.0544543E2,5.467704E1,6.4580273E2,1.6545176E1,2.575936E2,2.9465726E2,4.364803E1,9.9074356E1,1.2202911E3,3.0183127E2,1.4002383E2,6.54216E1,2.7585142E1,2.70919E1,6.3856085E2,7.241899E0,8.740725E0,7.8044515E0,2.549953E2,2.59829E0,2.9198813E2,2.669125E0],"tree_param":{"num_deleted":"0","num_feature":"10","num_nodes":"31","size_leaf_vector":"0"}},{"base_weights":[-7.2320133E-1],"categories":[],"categories_nodes":[],"categories_segments":[],"categories_sizes":[],"default_left":[0],"id":8,"left_children":[-1],"loss_changes":[0E0],"parents":[2147483647],"right_children":[-1],"split_conditions":[-3.6160067E-2],"split_indices":[0],"split_type":[0],"sum_hessian":[2.9687532E3],"tree_param":{"num_deleted":"0","num_feature":"10","num_nodes":"1","size_leaf_vector":"0"}},{"base_weights":[3.212919E-1,6.505429E-1,-2.669367E-1,7.095964E-1,4.0557534E-2,-5.2608156E-1,2.3972178E-2,-3.866081E-2,7.7054685E-1,-2.3666465E-1,9.5723057E-1,-5.7629895E-1,8.0649835E-1,1.717112E-1,-1.10601E-1,-6.4404815E-1,2.2039714E-1,8.6232316E-1,3.1790173E-1,-5.679804E-1,4.0103146E-1,5.6913E-1,1.2441324E0,-5.989168E-1,6.214494E-1,9.1950214E-1,-9.515165E-3,1.5918447E-1,9.4658196E-1,-1.2203102E-1,7.6634127E-1],"categories":[],"categories_nodes":[],"categories_segments":[],"categories_sizes":[],"default_left":[1,1,0,0,1,1,0,0,1,0,0,1,1,1,1,0,0,0,0,0,0,0,0,0,0,0,0,0,0,0,0],"id":9,"left_children":[1,3,5,7,9,11,13,15,17,19,21,23,25,27,29,-1,-1,-1,-1,-1,-1,-1,-1,-1,-1,-1,-1,-1,-1,-1,-1],"loss_changes":[6.110941E2,7.2831055E1,8.540392E1,8.4131714E1,4.586517E1,4.0555603E1,1.0647759E1,2.2074648E1,7.056415E1,2.9530785E1,3.957325E0,1.6028458E1,2.053424E0,2.3266983E0,2.903837E0,0E0,0E0,0E0,0E0,0E0,0E0,0E0,0E0,0E0,0E0,0E0,0E0,0E0,0E0,0E0,0E0],"parents":[2147483647,0,0,1,1,2,2,3,3,4,4,5,5,6,6,7,7,8,8,9,9,10,10,11,11,12,12,13,13,14,14],"right_children":[2,4,6,8,10,12,14,16,18,20,22,24,26,28,30,-1,-1,-1,-1,-1,-1,-1,-1,-1,-1,-1,-1,-1,-1,-1,-1],"split_conditions":[5E-1,2.219E3,5.5E0,1.25E1,1.367E3,5E-1,5E-1,5.5E0,6.325E2,7.135E2,2.8985E3,5.5E0,1.8015E3,2.5E0,4E0,-3.2202408E-2,1.1019858E-2,4.311616E-2,1.5895087E-2,-2.839902E-2,2.0051574E-2,2.84565E-2,6.2206622E-2,-2.9945841E-2,3.1072471E-2,4.5975108E-2,-4.7575828E-4,7.959223E-3,4.7329098E-2,-6.101551E-3,3.8317066E-2],"split_indices":[0,4,8,1,6,3,9,8,5,7,6,7,4,6,7,0,0,0,0,0,0,0,0,0,0,0,0,0,0,0,0],"split_type":[0,0,0,0,0,0,0,0,0,0,0,0,0,0,0,0,0,0,0,0,0,0,0,0,0,0,0,0,0,0,0],"sum_hessian":[3.153361E3,2.0216633E3,1.1316979E3,1.8430701E3,1.785933E2,5.9809753E2,5.336003E2,1.3884981E2,1.7042202E3,1.3769356E2,4.089975E1,5.769241E2,2.1173477E1,2.5422617E2,2.7937415E2,4.1165306E1,9.7684494E1,1.4161775E3,2.8804282E2,9.068656E1,4.700699E1,1.8652147E1,2.2247602E1,5.667222E2,1.020182E1,1.8486582E1,2.6868951E0,2.5136792E2,2.8582382E0,2.766294E2,2.7447264E0],"tree_param":{"num_deleted":"0","num_feature":"10","num_nodes":"31","size_leaf_vector":"0"}},{"base_weights":[3.338295E-1,-1.2772882E-2,8.72654E-1,1.0997961E-1,-3.6352953E-1,1.08448E0,6.15547E-1,2.8160638E-1,-3.6390868E-1,-3.951301E-1,3.0258554E-1,1.1204278E0,-3.4283146E-1,4.7628966E-1,7.347245E-1,5.095317E-1,-2.3856187E-1,-4.8418686E-1,4.6467405E-2,-4.2439058E-1,1.6009136E-1,6.552855E-1,-1.9753782E-1,1.1367337E0,-3.0930576E-1,-4.219616E-2,-6.3959587E-1,4.8816472E-1,-5.203525E-1,7.4468356E-1,-2.7361584E-1],"categories":[],"categories_nodes":[],"categories_segments":[],"categories_sizes":[],"default_left":[1,1,0,1,1,1,0,1,1,1,0,1,0,1,1,0,0,0,0,0,0,0,0,0,0,0,0,0,0,0,0],"id":10,"left_children":[1,3,5,7,9,11,13,15,17,19,21,23,25,27,29,-1,-1,-1,-1,-1,-1,-1,-1,-1,-1,-1,-1,-1,-1,-1,-1],"loss_changes":[5.896841E2,8.281245E1,6.6647095E1,1.15986176E2,1.0614937E1,3.508728E1,8.954529E0,1.2420138E2,1.8742615E1,7.808426E0,4.2127275E0,1.5737549E1,1.5237758E0,3.3475037E0,3.2189484E0,0E0,0E0,0E0,0E0,0E0,0E0,0E0,0E0,0E0,0E0,0E0,0E0,0E0,0E0,0E0,0E0],"parents":[2147483647,0,0,1,1,2,2,3,3,4,4,5,5,6,6,7,7,8,8,9,9,10,10,11,11,12,12,13,13,14,14],"right_children":[2,4,6,8,10,12,14,16,18,20,22,24,26,28,30,-1,-1,-1,-1,-1,-1,-1,-1,-1,-1,-1,-1,-1,-1,-1,-1],"split_conditions":[5E-1,3.4E2,5.5E0,4.525E2,1.5215E3,3.1E1,5E-1,3.495E2,1.3315E3,1.3585E3,2.31E2,5.4E1,3.575E2,2.5E0,4E0,2.5476584E-2,-1.1928094E-2,-2.4209343E-2,2.3233702E-3,-2.121953E-2,8.004568E-3,3.2764275E-2,-9.876891E-3,5.6836683E-2,-1.5465288E-2,-2.109808E-3,-3.1979796E-2,2.4408236E-2,-2.6017625E-2,3.723418E-2,-1.3680792E-2],"split_indices":[0,3,8,6,4,3,9,7,4,5,6,6,3,6,7,0,0,0,0,0,0,0,0,0,0,0,0,0,0,0,0],"split_type":[0,0,0,0,0,0,0,0,0,0,0,0,0,0,0,0,0,0,0,0,0,0,0,0,0,0,0,0,0,0,0],"sum_hessian":[3.1564194E3,1.9214261E3,1.2349934E3,1.4238242E3,4.9760193E2,6.7535895E2,5.5963446E2,1.0455618E3,3.782624E2,4.754532E2,2.2148726E1,6.589772E2,1.6381771E1,2.6038016E2,2.9925433E2,7.2701965E2,3.1854214E2,2.923863E2,8.5876114E1,4.518748E2,2.3578424E1,1.2806795E1,9.341931E0,6.517491E2,7.2281117E0,8.705206E0,7.676565E0,2.5781842E2,2.5617385E0,2.9658652E2,2.6678143E0],"tree_param":{"num_deleted":"0","num_feature":"10","num_nodes":"31","size_leaf_vector":"0"}},{"base_weights":[-7.1132463E-1],"categories":[],"categories_nodes":[],"categories_segments":[],"categories_sizes":[],"default_left":[0],"id":11,"left_children":[-1],"loss_changes":[0E0],"parents":[2147483647],"right_children":[-1],"split_conditions":[-3.5566233E-2],"split_indices":[0],"split_type":[0],"sum_hessian":[2.9055637E3],"tree_param":{"num_deleted":"0","num_feature":"10","num_nodes":"1","size_leaf_vector":"0"}},{"base_weights":[3.0823523E-1,6.186885E-1,-2.580177E-1,5.07937E-1,9.184946E-1,-5.139309E-1,2.4276564E-2,3.480022E-1,9.1963494E-1,9.3405366E-1,-1.1990011E-1,-5.6374884E-1,7.6724786E-1,1.6566835E-1,-1.0546699E-1,1.09754495E-1,7.836417E-1,1.0148797E0,5.647675E-1,9.420914E-1,-1.8863906E-1,-3.5299462E-1,4.9140504E-1,-5.8637303E-1,6.022061E-1,8.748876E-1,-1.4930072E-2,3.5990503E-1,1.19341455E-1,-1.16599254E-1,7.339143E-1],"categories":[],"categories_nodes":[],"categories_segments":[],"categories_sizes":[],"default_left":[1,1,0,1,1,1,0,1,1,1,0,1,1,0,1,0,0,0,0,0,0,0,0,0,0,0,0,0,0,0,0],"id":12,"left_children":[1,3,5,7,9,11,13,15,17,19,21,23,25,27,29,-1,-1,-1,-1,-1,-1,-1,-1,-1,-1,-1,-1,-1,-1,-1,-1],"loss_changes":[5.566926E2,6.7437195E1,8.1051544E1,9.815842E1,9.004974E0,3.7988663E1,9.819807E0,1.1187976E2,1.3549652E1,5.0724487E0,1.4576048E0,1.5309097E1,1.9029903E0,2.2613735E0,2.695041E0,0E0,0E0,0E0,0E0,0E0,0E0,0E0,0E0,0E0,0E0,0E0,0E0,0E0,0E0,0E0,0E0],"parents":[2147483647,0,0,1,1,2,2,3,3,4,4,5,5,6,6,7,7,8,8,9,9,10,10,11,11,12,12,13,13,14,14],"right_children":[2,4,6,8,10,12,14,16,18,20,22,24,26,28,30,-1,-1,-1,-1,-1,-1,-1,-1,-1,-1,-1,-1,-1,-1,-1,-1],"split_conditions":[5E-1,3.4E2,5.5E0,4.525E2,4.126E3,5E-1,5E-1,2.475E2,1.3315E3,3.4665E3,2.056E3,5.5E0,1.8015E3,1.25E1,4E0,5.4877247E-3,3.9182086E-2,5.0743986E-2,2.8238375E-2,4.710457E-2,-9.431954E-3,-1.764973E-2,2.4570253E-2,-2.9318651E-2,3.0110305E-2,4.374438E-2,-7.4650365E-4,1.7995251E-2,5.9670727E-3,-5.829963E-3,3.6695715E-2],"split_indices":[0,3,8,6,4,3,9,7,4,5,6,7,4,1,7,0,0,0,0,0,0,0,0,0,0,0,0,0,0,0,0],"split_type":[0,0,0,0,0,0,0,0,0,0,0,0,0,0,0,0,0,0,0,0,0,0,0,0,0,0,0,0,0,0,0],"sum_hessian":[3.1648057E3,2.0440463E3,1.1207594E3,1.4946144E3,5.4943195E2,5.874172E2,5.333423E2,1.0777712E3,4.168431E2,5.414199E2,8.012032E0,5.659697E2,2.1447447E1,2.5508218E2,2.782601E2,6.975427E2,3.8022852E2,3.271718E2,8.967128E1,5.37731E2,3.688923E0,6.10624E0,1.9057919E0,5.556843E2,1.0285409E1,1.8748796E1,2.69865E0,4.781933E1,2.0726286E2,2.754678E2,2.7922935E0],"tree_param":{"num_deleted":"0","num_feature":"10","num_nodes":"31","size_leaf_vector":"0"}},{"base_weights":[3.2013837E-1,-1.1286809E-2,8.27352E-1,1.07699744E-1,-3.5458294E-1,1.0153091E0,5.707703E-1,2.730532E-1,-3.5494715E-1,-3.8555655E-1,2.8743806E-1,1.0501409E0,-3.6283877E-1,4.5401642E-1,6.831896E-1,4.963783E-1,-2.1922112E-1,-4.7376892E-1,4.5341656E-2,-4.1432863E-1,1.520539E-1,6.234097E-1,-1.9567074E-1,1.0646358E0,-3.0782738E-1,-4.8643374E-1,2.7043498E-1,4.653053E-1,-5.1216215E-1,7.170585E-1,4.0779296E-1],"categories":[],"categories_nodes":[],"categories_segments":[],"categories_sizes":[],"default_left":[1,1,1,1,1,1,0,1,1,1,0,1,1,1,0,0,0,0,0,0,0,0,0,0,0,0,0,0,0,0,0],"id":13,"left_children":[1,3,5,7,9,11,13,15,17,19,21,23,25,27,29,-1,-1,-1,-1,-1,-1,-1,-1,-1,-1,-1,-1,-1,-1,-1,-1],"loss_changes":[5.3281024E2,7.838021E1,5.9827637E1,1.0911188E2,9.932014E0,3.5024292E1,6.6710663E0,1.15584694E2,1.788837E1,7.35746E0,3.9043298E0,1.4188049E1,1.582166E0,3.1166458E0,2.2166061E0,0E0,0E0,0E0,0E0,0E0,0E0,0E0,0E0,0E0,0E0,0E0,0E0,0E0,0E0,0E0,0E0],"parents":[2147483647,0,0,1,1,2,2,3,3,4,4,5,5,6,6,7,7,8,8,9,9,10,10,11,11,12,12,13,13,14,14],"right_children":[2,4,6,8,10,12,14,16,18,20,22,24,26,28,30,-1,-1,-1,-1,-1,-1,-1,-1,-1,-1,-1,-1,-1,-1,-1,-1],"split_conditions":[5E-1,3.4E2,5.5E0,4.525E2,1.5215E3,3.1E1,5E-1,3.285E2,1.3315E3,1.3585E3,2.31E2,5.4E1,3.43E2,2.5E0,4.45E1,2.4818916E-2,-1.0961056E-2,-2.3688447E-2,2.267083E-3,-2.0716432E-2,7.602695E-3,3.1170486E-2,-9.783537E-3,5.3231787E-2,-1.5391369E-2,-2.4321688E-2,1.3521749E-2,2.3265265E-2,-2.5608107E-2,3.5852924E-2,2.0389648E-2],"split_indices":[0,3,8,6,4,3,9,7,4,5,6,6,4,6,1,0,0,0,0,0,0,0,0,0,0,0,0,0,0,0,0],"split_type":[0,0,0,0,0,0,0,0,0,0,0,0,0,0,0,0,0,0,0,0,0,0,0,0,0,0,0,0,0,0,0],"sum_hessian":[3.1684841E3,1.9169089E3,1.2515751E3,1.424027E3,4.9288196E2,7.2068506E2,5.3089E2,1.0493804E3,3.746466E2,4.7057883E2,2.2303106E1,7.031514E2,1.7533636E1,2.62896E2,2.6799402E2,7.218828E2,3.274976E2,2.8875037E2,8.589623E1,4.4689124E2,2.368761E1,1.2983495E1,9.319612E0,6.9593896E2,7.2124515E0,1.4864443E1,2.6691935E0,2.603722E2,2.5237968E0,2.3721683E2,3.0777199E1],"tree_param":{"num_deleted":"0","num_feature":"10","num_nodes":"31","size_leaf_vector":"0"}},{"base_weights":[-7.003107E-1],"categories":[],"categories_nodes":[],"categories_segments":[],"categories_sizes":[],"default_left":[0],"id":14,"left_children":[-1],"loss_changes":[0E0],"parents":[2147483647],"right_children":[-1],"split_conditions":[-3.5015535E-2],"split_indices":[0],"split_type":[0],"sum_hessian":[2.8412903E3],"tree_param":{"num_deleted":"0","num_feature":"10","num_nodes":"1","size_leaf_vector":"0"}},{"base_weights":[2.961199E-1,5.89434E-1,-2.4923916E-1,6.4456826E-1,1.4867439E-2,-5.022624E-1,2.4900991E-2,-4.1573644E-2,6.993011E-1,-2.7450177E-1,8.180737E-1,-5.516568E-1,7.3075795E-1,1.5999532E-1,-1.00003965E-1,-6.375495E-1,2.096839E-1,7.822314E-1,2.8621686E-1,-5.7066506E-1,3.566599E-1,4.7076038E-1,1.1568142E0,-5.742989E-1,5.8413714E-1,8.3337665E-1,-1.9084578E-2,3.4808552E-1,1.14982896E-1,-1.1092603E-1,7.128995E-1],"categories":[],"categories_nodes":[],"categories_segments":[],"categories_sizes":[],"default_left":[1,1,0,0,1,1,0,0,1,1,0,1,1,0,1,0,0,0,0,0,0,0,0,0,0,0,0,0,0,0,0],"id":15,"left_children":[1,3,5,7,9,11,13,15,17,19,21,23,25,27,29,-1,-1,-1,-1,-1,-1,-1,-1,-1,-1,-1,-1,-1,-1,-1,-1],"loss_changes":[5.077158E2,6.536273E1,7.703681E1,7.0741394E1,4.2457508E1,3.557579E1,9.025536E0,2.1104763E1,5.9516357E1,2.5313545E1,5.146866E0,1.46297E1,1.7606077E0,2.1348915E0,2.5477123E0,0E0,0E0,0E0,0E0,0E0,0E0,0E0,0E0,0E0,0E0,0E0,0E0,0E0,0E0,0E0,0E0],"parents":[2147483647,0,0,1,1,2,2,3,3,4,4,5,5,6,6,7,7,8,8,9,9,10,10,11,11,12,12,13,13,14,14],"right_children":[2,4,6,8,10,12,14,16,18,20,22,24,26,28,30,-1,-1,-1,-1,-1,-1,-1,-1,-1,-1,-1,-1,-1,-1,-1,-1],"split_conditions":[5E-1,2.219E3,5.5E0,1.25E1,1.1575E3,5E-1,5E-1,5.5E0,6.325E2,7.98E2,2.8985E3,5.5E0,1.8015E3,1.25E1,4E0,-3.1877477E-2,1.0484195E-2,3.911157E-2,1.4310843E-2,-2.8533254E-2,1.7832994E-2,2.353802E-2,5.7840712E-2,-2.8714946E-2,2.9206857E-2,4.1668832E-2,-9.542289E-4,1.7404277E-2,5.749145E-3,-5.5463016E-3,3.5644975E-2],"split_indices":[0,4,8,1,6,3,9,8,5,7,6,7,4,1,7,0,0,0,0,0,0,0,0,0,0,0,0,0,0,0,0],"split_type":[0,0,0,0,0,0,0,0,0,0,0,0,0,0,0,0,0,0,0,0,0,0,0,0,0,0,0,0,0,0,0],"sum_hessian":[3.1720688E3,2.06263E3,1.109439E3,1.8819226E3,1.8070714E2,5.7650745E2,5.329315E2,1.3904674E2,1.7428759E3,1.3333066E2,4.7376476E1,5.548336E2,2.167384E1,2.5588802E2,2.7704352E2,4.0780087E1,9.8266655E1,1.4507347E3,2.921412E2,9.0813576E1,4.2517075E1,2.4572172E1,2.2804306E1,5.444739E2,1.0359748E1,1.8966766E1,2.7070723E0,4.8112144E1,2.0777586E2,2.7422266E2,2.8208768E0],"tree_param":{"num_deleted":"0","num_feature":"10","num_nodes":"31","size_leaf_vector":"0"}},{"base_weights":[3.074296E-1,-9.752295E-3,7.864859E-1,-8.845987E-2,4.792824E-1,9.6438944E-1,5.434407E-1,6.2341636E-1,-1.5895973E-1,7.132129E-1,-3.6790898E-1,9.9698263E-1,-3.536538E-1,4.3327597E-1,6.492464E-1,1.1463999E0,3.798928E-1,-2.7177456E-1,2.797868E-1,8.7144256E-1,-3.5665718E-1,-6.496074E-2,-7.048667E-1,1.0107186E0,-3.0619666E-1,-4.7650883E-1,2.656797E-1,4.4417307E-1,-5.090317E-1,6.816023E-1,3.8564977E-1],"categories":[],"categories_nodes":[],"categories_segments":[],"categories_sizes":[],"default_left":[1,1,1,0,0,1,0,0,1,1,1,1,1,1,0,0,0,0,0,0,0,0,0,0,0,0,0,0,0,0,0],"id":16,"left_children":[1,3,5,7,9,11,13,15,17,19,21,23,25,27,29,-1,-1,-1,-1,-1,-1,-1,-1,-1,-1,-1,-1,-1,-1,-1,-1],"loss_changes":[4.827548E2,7.365444E1,5.4198486E1,8.281641E1,5.283767E1,3.1688416E1,5.979904E0,1.850533E1,7.434427E1,3.5560005E1,5.8811703E0,1.3056152E1,1.5221021E0,2.9592056E0,2.0569687E0,0E0,0E0,0E0,0E0,0E0,0E0,0E0,0E0,0E0,0E0,0E0,0E0,0E0,0E0,0E0,0E0],"parents":[2147483647,0,0,1,1,2,2,3,3,4,4,5,5,6,6,7,7,8,8,9,9,10,10,11,11,12,12,13,13,14,14],"right_children":[2,4,6,8,10,12,14,16,18,20,22,24,26,28,30,-1,-1,-1,-1,-1,-1,-1,-1,-1,-1,-1,-1,-1,-1,-1,-1],"split_conditions":[5E-1,1.3085E3,5.5E0,1.25E1,1.3725E3,3.1E1,5E-1,5.5E0,5.805E2,2.1055E3,2.8985E3,5.4E1,3.43E2,2.5E0,4.45E1,5.7319995E-2,1.899464E-2,-1.3588728E-2,1.398934E-2,4.3572128E-2,-1.7832858E-2,-3.248037E-3,-3.5243336E-2,5.053593E-2,-1.5309833E-2,-2.3825442E-2,1.3283985E-2,2.2208653E-2,-2.5451586E-2,3.4080114E-2,1.9282488E-2],"split_indices":[0,4,8,1,6,3,9,8,5,7,6,6,4,6,1,0,0,0,0,0,0,0,0,0,0,0,0,0,0,0,0],"split_type":[0,0,0,0,0,0,0,0,0,0,0,0,0,0,0,0,0,0,0,0,0,0,0,0,0,0,0,0,0,0,0],"sum_hessian":[3.1760552E3,1.9114614E3,1.2645939E3,1.6471761E3,2.6428525E2,7.284311E2,5.361627E2,1.4772023E2,1.4994559E3,2.0722379E2,5.706147E1,7.110905E2,1.7340593E1,2.6516656E2,2.7099612E2,4.5753635E1,1.0196659E2,1.1930641E3,3.0639178E2,1.8068643E2,2.6537354E1,3.0675165E1,2.6386303E1,7.038956E2,7.194871E0,1.4662628E1,2.6779647E0,2.6265778E2,2.5088131E0,2.3995624E2,3.1039877E1],"tree_param":{"num_deleted":"0","num_feature":"10","num_nodes":"31","size_leaf_vector":"0"}},{"base_weights":[-6.8999755E-1],"categories":[],"categories_nodes":[],"categories_segments":[],"categories_sizes":[],"default_left":[0],"id":17,"left_children":[-1],"loss_changes":[0E0],"parents":[2147483647],"right_children":[-1],"split_conditions":[-3.449988E-2],"split_indices":[0],"split_type":[0],"sum_hessian":[2.7762993E3],"tree_param":{"num_deleted":"0","num_feature":"10","num_nodes":"1","size_leaf_vector":"0"}},{"base_weights":[2.8478196E-1,5.6232494E-1,-2.4057779E-1,6.144138E-1,1.3562912E-2,-4.9094456E-1,2.5687568E-2,-3.8976885E-2,6.6590655E-1,-2.6710686E-1,7.790826E-1,-5.3991127E-1,6.973154E-1,1.5472879E-1,-9.450588E-2,-6.2449133E-1,2.0202707E-1,7.4420017E-1,2.7415887E-1,-5.659028E-1,3.2889372E-1,4.5069435E-1,1.0974234E0,-5.625845E-1,5.6723565E-1,7.955674E-1,-2.3021474E-2,1.3856219E-1,6.835705E-1,-3.6420402E-1,-6.1849482E-2],"categories":[],"categories_nodes":[],"categories_segments":[],"categories_sizes":[],"default_left":[1,1,0,0,1,1,0,0,1,1,0,1,1,1,0,0,0,0,0,0,0,0,0,0,0,0,0,0,0,0,0],"id":18,"left_children":[1,3,5,7,9,11,13,15,17,19,21,23,25,27,29,-1,-1,-1,-1,-1,-1,-1,-1,-1,-1,-1,-1,-1,-1,-1,-1],"loss_changes":[4.6331726E2,5.941394E1,7.326134E1,6.3904114E1,3.914921E1,3.33293E1,8.288091E0,1.9830948E1,5.3776306E1,2.393569E1,4.6151066E0,1.398732E1,1.6355839E0,2.1078792E0,2.4153953E0,0E0,0E0,0E0,0E0,0E0,0E0,0E0,0E0,0E0,0E0,0E0,0E0,0E0,0E0,0E0,0E0],"parents":[2147483647,0,0,1,1,2,2,3,3,4,4,5,5,6,6,7,7,8,8,9,9,10,10,11,11,12,12,13,13,14,14],"right_children":[2,4,6,8,10,12,14,16,18,20,22,24,26,28,30,-1,-1,-1,-1,-1,-1,-1,-1,-1,-1,-1,-1,-1,-1,-1,-1],"split_conditions":[5E-1,2.219E3,5.5E0,1.25E1,1.1575E3,5E-1,5E-1,5.5E0,6.325E2,7.55E2,2.8985E3,5.5E0,1.8015E3,5E-1,3.5E0,-3.1224567E-2,1.0101354E-2,3.721001E-2,1.3707943E-2,-2.8295143E-2,1.6444687E-2,2.2534719E-2,5.487117E-2,-2.8129226E-2,2.8361782E-2,3.977837E-2,-1.1510737E-3,6.9281096E-3,3.4178525E-2,-1.82102E-2,-3.092474E-3],"split_indices":[0,4,8,1,6,3,9,8,5,7,6,7,4,2,1,0,0,0,0,0,0,0,0,0,0,0,0,0,0,0,0],"split_type":[0,0,0,0,0,0,0,0,0,0,0,0,0,0,0,0,0,0,0,0,0,0,0,0,0,0,0,0,0,0,0],"sum_hessian":[3.1756147E3,2.0778396E3,1.0977749E3,1.8975988E3,1.8024097E2,5.653438E2,5.3243115E2,1.3864001E2,1.7589587E3,1.3236267E2,4.7878307E1,5.4349274E2,2.1851025E1,2.5662643E2,2.7580472E2,3.996197E1,9.867805E1,1.4652234E3,2.937353E2,8.8196945E1,4.4165718E1,2.4756357E1,2.3121948E1,5.3306793E2,1.0424847E1,1.913643E1,2.7145956E0,2.5023868E2,6.387742E0,2.8692276E1,2.4711246E2],"tree_param":{"num_deleted":"0","num_feature":"10","num_nodes":"31","size_leaf_vector":"0"}},{"base_weights":[2.956579E-1,-7.99578E-3,7.493698E-1,1.106661E-1,-3.2180884E-1,9.2912966E-1,5.3063935E-1,2.9890984E-1,-2.6821205E-1,-3.410461E-1,5.802051E-1,9.5647126E-1,-4.7441483E-1,4.1387275E-1,6.2981606E-1,5.320154E-1,-1.7921388E-1,-3.9609233E-1,1.3503288E-1,-3.7115997E-1,2.1271808E-1,7.3798066E-1,-3.8939247E-1,9.703817E-1,-5.9571624E-1,-5.973403E-1,3.7157694E-1,4.244068E-1,-5.0586015E-1,6.3860285E-1,-2.7742392E-1],"categories":[],"categories_nodes":[],"categories_segments":[],"categories_sizes":[],"default_left":[1,0,0,1,1,1,0,0,1,1,0,1,1,1,1,0,0,0,0,0,0,0,0,0,0,0,0,0,0,0,0],"id":19,"left_children":[1,3,5,7,9,11,13,15,17,19,21,23,25,27,29,-1,-1,-1,-1,-1,-1,-1,-1,-1,-1,-1,-1,-1,-1,-1,-1],"loss_changes":[4.3824396E2,7.1031555E1,4.965222E1,9.8802414E1,9.279652E0,2.726654E1,6.4287415E0,1.03212975E2,2.3773201E1,8.63501E0,2.015898E0,1.5383057E1,1.6798856E0,2.813263E0,2.6518478E0,0E0,0E0,0E0,0E0,0E0,0E0,0E0,0E0,0E0,0E0,0E0,0E0,0E0,0E0,0E0,0E0],"parents":[2147483647,0,0,1,1,2,2,3,3,4,4,5,5,6,6,7,7,8,8,9,9,10,10,11,11,12,12,13,13,14,14],"right_children":[2,4,6,8,10,12,14,16,18,20,22,24,26,28,30,-1,-1,-1,-1,-1,-1,-1,-1,-1,-1,-1,-1,-1,-1,-1,-1],"split_conditions":[5E-1,3.4E2,5.5E0,2.05E2,4.126E3,4.55E1,5E-1,3.3E2,1.3315E3,1.3585E3,2.7345E3,3.575E2,4.002E3,2.5E0,4E0,2.6600769E-2,-8.960694E-3,-1.9804617E-2,6.751644E-3,-1.8558E-2,1.0635904E-2,3.6899034E-2,-1.9469624E-2,4.8519086E-2,-2.9785812E-2,-2.9867014E-2,1.8578848E-2,2.122034E-2,-2.5293007E-2,3.1930145E-2,-1.3871196E-2],"split_indices":[0,3,8,6,4,6,9,7,4,5,6,3,4,6,7,0,0,0,0,0,0,0,0,0,0,0,0,0,0,0,0],"split_type":[0,0,0,0,0,0,0,0,0,0,0,0,0,0,0,0,0,0,0,0,0,0,0,0,0,0,0,0,0,0,0],"sum_hessian":[3.179909E3,1.9055636E3,1.2743453E3,1.3831874E3,5.223762E2,6.9770264E2,5.766427E2,9.242095E2,4.589779E2,5.12077E2,1.0299171E1,6.846833E2,1.301936E1,2.6721173E2,3.09431E2,6.212239E2,3.029856E2,3.4848215E2,1.1049574E2,4.859791E2,2.6097946E1,9.063253E0,1.235918E0,6.7897327E2,5.7100077E0,1.1624236E1,1.3951235E0,2.6471835E2,2.4933627E0,3.067561E2,2.6748893E0],"tree_param":{"num_deleted":"0","num_feature":"10","num_nodes":"31","size_leaf_vector":"0"}},{"base_weights":[-6.8037766E-1],"categories":[],"categories_nodes":[],"categories_segments":[],"categories_sizes":[],"default_left":[0],"id":20,"left_children":[-1],"loss_changes":[0E0],"parents":[2147483647],"right_children":[-1],"split_conditions":[-3.4018885E-2],"split_indices":[0],"split_type":[0],"sum_hessian":[2.710881E3],"tree_param":{"num_deleted":"0","num_feature":"10","num_nodes":"1","size_leaf_vector":"0"}},{"base_weights":[2.742392E-1,5.372913E-1,-2.3202826E-1,6.2275404E-1,2.2368978E-1,-4.7983965E-1,2.6423702E-2,-3.757956E-2,6.835301E-1,6.1124388E-2,8.809695E-1,-5.194334E-1,9.380934E-1,1.4986655E-1,-8.9342475E-2,-6.164381E-1,1.9692133E-1,7.836209E-1,2.8145632E-1,-3.49802E-2,9.861983E-1,6.0417503E-1,1.0586749E0,-5.402778E-1,9.423604E-1,1.0283582E0,-6.846796E-3,3.3202252E-1,1.06170416E-1,-3.5546243E-1,-5.7316523E-2],"categories":[],"categories_nodes":[],"categories_segments":[],"categories_sizes":[],"default_left":[1,1,0,0,1,1,0,0,1,1,0,1,1,0,0,0,0,0,0,0,0,0,0,0,0,0,0,0,0,0,0],"id":21,"left_children":[1,3,5,7,9,11,13,15,17,19,21,23,25,27,29,-1,-1,-1,-1,-1,-1,-1,-1,-1,-1,-1,-1,-1,-1,-1,-1],"loss_changes":[4.2316586E2,5.5894653E1,6.96234E1,6.5940125E1,4.7954865E1,3.1640358E1,7.6296277E0,1.9040293E1,6.0308044E1,3.2154408E1,3.738945E0,1.6977554E1,1.3231735E0,2.0206952E0,2.3289819E0,0E0,0E0,0E0,0E0,0E0,0E0,0E0,0E0,0E0,0E0,0E0,0E0,0E0,0E0,0E0,0E0],"parents":[2147483647,0,0,1,1,2,2,3,3,4,4,5,5,6,6,7,7,8,8,9,9,10,10,11,11,12,12,13,13,14,14],"right_children":[2,4,6,8,10,12,14,16,18,20,22,24,26,28,30,-1,-1,-1,-1,-1,-1,-1,-1,-1,-1,-1,-1,-1,-1,-1,-1],"split_conditions":[5E-1,6.685E2,5.5E0,1.25E1,1.3725E3,4.55E1,5E-1,5.5E0,5.805E2,2.582E3,2.4595E3,3.575E2,4.002E3,1.25E1,3.5E0,-3.0821905E-2,9.846067E-3,3.9181046E-2,1.4072816E-2,-1.74901E-3,4.9309917E-2,3.0208752E-2,5.293375E-2,-2.7013889E-2,4.711802E-2,5.1417913E-2,-3.423398E-4,1.6601127E-2,5.308521E-3,-1.7773122E-2,-2.8658262E-3],"split_indices":[0,4,8,1,6,6,9,8,5,7,6,3,4,1,1,0,0,0,0,0,0,0,0,0,0,0,0,0,0,0,0],"split_type":[0,0,0,0,0,0,0,0,0,0,0,0,0,0,0,0,0,0,0,0,0,0,0,0,0,0,0,0,0,0,0],"sum_hessian":[3.175588E3,2.0897244E3,1.0858635E3,1.641419E3,4.4830554E2,5.539057E2,5.319578E2,1.3837311E2,1.5030458E3,3.6028824E2,8.80173E1,5.3947534E2,1.443039E1,2.5730057E2,2.7465723E2,3.9424984E1,9.894813E1,1.2027009E3,3.0034494E2,3.2725262E2,3.3035614E1,3.613429E1,5.188302E1,5.325124E2,6.9629498E0,1.309155E1,1.3388404E0,4.8503937E1,2.0879663E2,2.841804E1,2.462392E2],"tree_param":{"num_deleted":"0","num_feature":"10","num_nodes":"31","size_leaf_vector":"0"}},{"base_weights":[2.8469133E-1,-6.1708195E-3,7.15445E-1,1.0315106E-1,-3.2983583E-1,8.78243E-1,4.941754E-1,2.5313228E-1,-3.3111605E-1,-3.591172E-1,2.530337E-1,9.047714E-1,-4.831476E-1,3.9564922E-1,5.885466E-1,4.4737685E-1,-2.1238208E-1,-4.455364E-1,4.0434994E-2,-3.937377E-1,4.0500384E-2,-1.4507619E-1,6.154743E-1,9.1828775E-1,-5.9812355E-1,-5.988218E-1,3.5800257E-1,4.058225E-1,-5.0190324E-1,6.0537803E-1,1.5553318E-1],"categories":[],"categories_nodes":[],"categories_segments":[],"categories_sizes":[],"default_left":[1,1,1,1,1,1,0,1,1,0,1,1,1,1,1,0,0,0,0,0,0,0,0,0,0,0,0,0,0,0,0],"id":22,"left_children":[1,3,5,7,9,11,13,15,17,19,21,23,25,27,29,-1,-1,-1,-1,-1,-1,-1,-1,-1,-1,-1,-1,-1,-1,-1,-1],"loss_changes":[3.9854092E2,6.725494E1,4.5751648E1,9.2628044E1,8.281403E0,2.7067993E1,4.841629E0,9.564483E1,1.5543037E1,6.3434563E0,3.486182E0,1.5249084E1,1.6491606E0,2.6695442E0,1.9225464E0,0E0,0E0,0E0,0E0,0E0,0E0,0E0,0E0,0E0,0E0,0E0,0E0,0E0,0E0,0E0,0E0],"parents":[2147483647,0,0,1,1,2,2,3,3,4,4,5,5,6,6,7,7,8,8,9,9,10,10,11,11,12,12,13,13,14,14],"right_children":[2,4,6,8,10,12,14,16,18,20,22,24,26,28,30,-1,-1,-1,-1,-1,-1,-1,-1,-1,-1,-1,-1,-1,-1,-1,-1],"split_conditions":[5E-1,3.4E2,5.5E0,4.525E2,1.5215E3,4.55E1,5E-1,3.495E2,1.3315E3,1.2985E3,5E-1,3.575E2,4.002E3,2.5E0,5.25E1,2.2368843E-2,-1.0619104E-2,-2.227682E-2,2.0217497E-3,-1.9686885E-2,2.0250191E-3,-7.2538094E-3,3.0773714E-2,4.591439E-2,-2.9906178E-2,-2.9941091E-2,1.790013E-2,2.0291125E-2,-2.5095163E-2,3.0268902E-2,7.776659E-3],"split_indices":[0,3,8,6,4,6,9,7,4,5,9,3,4,6,1,0,0,0,0,0,0,0,0,0,0,0,0,0,0,0,0],"split_type":[0,0,0,0,0,0,0,0,0,0,0,0,0,0,0,0,0,0,0,0,0,0,0,0,0,0,0,0,0,0,0],"sum_hessian":[3.179914E3,1.8987725E3,1.2811417E3,1.4198738E3,4.7889868E2,7.3638257E2,5.4475916E2,1.0556908E3,3.6418292E2,4.5635678E2,2.2541918E1,7.2263654E2,1.37460375E1,2.6905286E2,2.7570627E2,7.449045E2,3.1078632E2,2.7828503E2,8.589791E1,4.1998636E2,3.637042E1,1.1028158E1,1.1513761E1,7.165809E2,6.055641E0,1.2337488E1,1.4085487E0,2.665792E2,2.4736717E0,2.6500726E2,1.069901E1],"tree_param":{"num_deleted":"0","num_feature":"10","num_nodes":"31","size_leaf_vector":"0"}},{"base_weights":[-6.714258E-1],"categories":[],"categories_nodes":[],"categories_segments":[],"categories_sizes":[],"default_left":[0],"id":23,"left_children":[-1],"loss_changes":[0E0],"parents":[2147483647],"right_children":[-1],"split_conditions":[-3.357129E-2],"split_indices":[0],"split_type":[0],"sum_hessian":[2.645195E3],"tree_param":{"num_deleted":"0","num_feature":"10","num_nodes":"1","size_leaf_vector":"0"}},{"base_weights":[2.6439595E-1,5.140732E-1,-2.2358568E-1,5.750251E-1,9.9244624E-2,-4.690428E-1,2.7403478E-2,-3.636688E-2,6.249432E-1,-1.1951616E-1,7.9238665E-1,-5.174296E-1,6.489055E-1,1.4529262E-1,-8.392677E-2,-6.0872865E-1,1.9182754E-1,7.040194E-1,2.8044763E-1,-3.105346E-1,6.7329067E-1,5.452013E-1,1.0399908E0,-5.402835E-1,5.463441E-1,7.391025E-1,-2.0733481E-2,1.2961274E-1,6.558621E-1,-9.452144E-2,6.838342E-1],"categories":[],"categories_nodes":[],"categories_segments":[],"categories_sizes":[],"default_left":[1,1,0,0,0,1,0,0,1,1,1,1,1,1,1,0,0,0,0,0,0,0,0,0,0,0,0,0,0,0,0],"id":24,"left_children":[1,3,5,7,9,11,13,15,17,19,21,23,25,27,29,-1,-1,-1,-1,-1,-1,-1,-1,-1,-1,-1,-1,-1,-1,-1,-1],"loss_changes":[3.867508E2,5.3029785E1,6.622772E1,5.5885376E1,4.106317E1,2.973259E1,6.999129E0,1.8285822E1,4.5902527E1,3.1441677E1,3.4079933E0,1.2972366E1,1.4038401E0,1.9878702E0,2.296873E0,0E0,0E0,0E0,0E0,0E0,0E0,0E0,0E0,0E0,0E0,0E0,0E0,0E0,0E0,0E0,0E0],"parents":[2147483647,0,0,1,1,2,2,3,3,4,4,5,5,6,6,7,7,8,8,9,9,10,10,11,11,12,12,13,13,14,14],"right_children":[2,4,6,8,10,12,14,16,18,20,22,24,26,28,30,-1,-1,-1,-1,-1,-1,-1,-1,-1,-1,-1,-1,-1,-1,-1,-1],"split_conditions":[5E-1,1.3085E3,5.5E0,1.25E1,1.3725E3,5E-1,5E-1,5.5E0,5.805E2,1.653E3,2.8985E3,5.5E0,1.8015E3,5E-1,4E0,-3.0436432E-2,9.591377E-3,3.5200972E-2,1.4022382E-2,-1.552673E-2,3.3664536E-2,2.7260065E-2,5.199954E-2,-2.7014175E-2,2.7317205E-2,3.6955126E-2,-1.0366741E-3,6.4806375E-3,3.2793105E-2,-4.7260723E-3,3.419171E-2],"split_indices":[0,4,8,1,6,3,9,8,5,7,6,7,4,2,7,0,0,0,0,0,0,0,0,0,0,0,0,0,0,0,0],"split_type":[0,0,0,0,0,0,0,0,0,0,0,0,0,0,0,0,0,0,0,0,0,0,0,0,0,0,0,0,0,0,0],"sum_hessian":[3.1723633E3,2.0985703E3,1.0737931E3,1.8293872E3,2.6918304E2,5.4244006E2,5.31353E2,1.3810945E2,1.6912777E3,2.0523645E2,6.3946575E1,5.204512E2,2.1988892E1,2.5792624E2,2.7342676E2,3.8892048E1,9.92174E1,1.3746859E3,3.1659183E2,1.6587817E2,3.9358284E1,3.3602654E1,3.0343924E1,5.0998685E2,1.0464335E1,1.9287262E1,2.701629E0,2.5145769E2,6.4685526E0,2.7056995E2,2.8568282E0],"tree_param":{"num_deleted":"0","num_feature":"10","num_nodes":"31","size_leaf_vector":"0"}},{"base_weights":[2.744122E-1,-4.3280884E-3,6.843033E-1,1.01508744E-1,-3.2071692E-1,8.506916E-1,4.8364452E-1,2.4572134E-1,-3.2177126E-1,-3.3862913E-1,5.828041E-1,8.753741E-1,-4.5578638E-1,3.7854832E-1,5.7285076E-1,4.4556475E-1,-1.7383851E-1,-4.350343E-1,4.1156754E-2,-3.703975E-1,3.1067217E-2,7.842733E-1,-1.3104799E-2,8.8786525E-1,-5.772787E-1,-5.77052E-1,3.466757E-1,3.8840678E-1,-4.986806E-1,5.812501E-1,-2.8904843E-1],"categories":[],"categories_nodes":[],"categories_segments":[],"categories_sizes":[],"default_left":[1,1,0,1,1,1,0,1,1,0,0,1,1,1,1,0,0,0,0,0,0,0,0,0,0,0,0,0,0,0,0],"id":25,"left_children":[1,3,5,7,9,11,13,15,17,19,21,23,25,27,29,-1,-1,-1,-1,-1,-1,-1,-1,-1,-1,-1,-1,-1,-1,-1,-1],"loss_changes":[3.6305334E2,6.3400036E1,4.25318E1,8.6685165E1,7.878174E0,2.3031097E1,5.27124E0,8.885466E1,1.4856422E1,5.4845085E0,1.1620274E0,1.3017639E1,1.5303962E0,2.5434074E0,2.446083E0,0E0,0E0,0E0,0E0,0E0,0E0,0E0,0E0,0E0,0E0,0E0,0E0,0E0,0E0,0E0,0E0],"parents":[2147483647,0,0,1,1,2,2,3,3,4,4,5,5,6,6,7,7,8,8,9,9,10,10,11,11,12,12,13,13,14,14],"right_children":[2,4,6,8,10,12,14,16,18,20,22,24,26,28,30,-1,-1,-1,-1,-1,-1,-1,-1,-1,-1,-1,-1,-1,-1,-1,-1],"split_conditions":[5E-1,3.4E2,5.5E0,4.525E2,4.126E3,4.55E1,5E-1,2.475E2,1.3315E3,1.2985E3,5.98E2,3.575E2,4.002E3,2.5E0,4E0,2.2278238E-2,-8.691926E-3,-2.1751715E-2,2.0578378E-3,-1.8519877E-2,1.5533608E-3,3.921367E-2,-6.5524E-4,4.4393264E-2,-2.8863935E-2,-2.88526E-2,1.7333785E-2,1.9420339E-2,-2.493403E-2,2.9062504E-2,-1.4452422E-2],"split_indices":[0,3,8,6,4,6,9,7,4,5,7,3,4,6,7,0,0,0,0,0,0,0,0,0,0,0,0,0,0,0,0],"split_type":[0,0,0,0,0,0,0,0,0,0,0,0,0,0,0,0,0,0,0,0,0,0,0,0,0,0,0,0,0,0,0],"sum_hessian":[3.176596E3,1.8913804E3,1.2852156E3,1.4177881E3,4.735923E2,7.008357E2,5.8437994E2,1.0578092E3,3.5997885E2,4.6499896E2,8.593336E0,6.881646E2,1.2671067E1,2.7070212E2,3.136778E2,7.164771E2,3.4133206E2,2.7420572E2,8.577315E1,4.2820126E2,3.6797684E1,6.185875E0,2.4074616E0,6.826831E2,5.481511E0,1.125165E1,1.4194174E0,2.6824475E2,2.4573512E0,3.1097293E2,2.7048542E0],"tree_param":{"num_deleted":"0","num_feature":"10","num_nodes":"31","size_leaf_vector":"0"}},{"base_weights":[-6.6303915E-1],"categories":[],"categories_nodes":[],"categories_segments":[],"categories_sizes":[],"default_left":[0],"id":26,"left_children":[-1],"loss_changes":[0E0],"parents":[2147483647],"right_children":[-1],"split_conditions":[-3.315196E-2],"split_indices":[0],"split_type":[0],"sum_hessian":[2.579535E3],"tree_param":{"num_deleted":"0","num_feature":"10","num_nodes":"1","size_leaf_vector":"0"}},{"base_weights":[2.5517046E-1,4.924251E-1,-2.1526806E-1,5.3742164E-1,-3.7113253E-2,-4.5852372E-1,2.8393941E-2,-3.4784332E-2,5.811718E-1,-2.803862E-1,7.2061133E-1,-4.97685E-1,8.684677E-1,1.4105329E-1,-7.8704655E-2,-6.0107696E-1,1.873531E-1,6.49468E-1,2.3706217E-1,-4.2527732E-1,7.656015E-1,3.7482324E-1,9.824059E-1,-5.1821864E-1,8.740266E-1,9.508349E-1,-6.1563477E-3,1.2418888E-1,5.9627706E-1,-3.424328E-1,-4.719899E-2],"categories":[],"categories_nodes":[],"categories_segments":[],"categories_sizes":[],"default_left":[1,1,0,0,1,1,0,0,1,1,0,1,1,0,0,0,0,0,0,0,0,0,0,0,0,0,0,0,0,0,0],"id":27,"left_children":[1,3,5,7,9,11,13,15,17,19,21,23,25,27,29,-1,-1,-1,-1,-1,-1,-1,-1,-1,-1,-1,-1,-1,-1,-1,-1],"loss_changes":[3.5360056E2,5.0192047E1,6.2988297E1,4.8606445E1,3.0773094E1,2.8064995E1,6.426854E0,1.7572275E1,4.2219177E1,1.9460884E1,3.3058147E0,1.5018631E1,1.1301737E0,1.9181437E0,2.2541509E0,0E0,0E0,0E0,0E0,0E0,0E0,0E0,0E0,0E0,0E0,0E0,0E0,0E0,0E0,0E0,0E0],"parents":[2147483647,0,0,1,1,2,2,3,3,4,4,5,5,6,6,7,7,8,8,9,9,10,10,11,11,12,12,13,13,14,14],"right_children":[2,4,6,8,10,12,14,16,18,20,22,24,26,28,30,-1,-1,-1,-1,-1,-1,-1,-1,-1,-1,-1,-1,-1,-1,-1,-1],"split_conditions":[5E-1,2.5075E3,5.5E0,1.25E1,1.367E3,4.55E1,5E-1,5.5E0,6.325E2,2.52E3,2.8985E3,3.575E2,4.002E3,2.5E0,3.5E0,-3.0053848E-2,9.367655E-3,3.24734E-2,1.1853109E-2,-2.1263866E-2,3.8280077E-2,1.8741162E-2,4.9120296E-2,-2.5910933E-2,4.3701332E-2,4.7541745E-2,-3.078174E-4,6.209444E-3,2.9813854E-2,-1.7121641E-2,-2.3599495E-3],"split_indices":[0,4,8,1,6,6,9,8,5,7,6,3,4,6,1,0,0,0,0,0,0,0,0,0,0,0,0,0,0,0,0],"split_type":[0,0,0,0,0,0,0,0,0,0,0,0,0,0,0,0,0,0,0,0,0,0,0,0,0,0,0,0,0,0,0],"sum_hessian":[3.1661245E3,2.104648E3,1.0614767E3,1.9398019E3,1.6484602E2,5.3074E2,5.307367E2,1.3779478E2,1.8020071E3,1.2526027E2,3.9585754E1,5.161331E2,1.4606815E1,2.5849896E2,2.7223773E2,3.834258E1,9.945221E1,1.5028463E3,2.991607E2,1.105414E2,1.4718869E1,1.8104456E1,2.1481298E1,5.0913394E2,6.999205E0,1.3269987E1,1.3368281E0,2.5049194E2,8.00702E0,2.79985E1,2.4423921E2],"tree_param":{"num_deleted":"0","num_feature":"10","num_nodes":"31","size_leaf_vector":"0"}},{"base_weights":[2.6479498E-1,-2.4049124E-3,6.5559506E-1,-6.0964506E-2,5.4133755E-1,8.07942E-1,4.5110896E-1,5.2581537E-1,-1.18830964E-1,7.6855624E-1,-3.422345E-1,8.3216417E-1,-4.663359E-1,3.6241657E-1,5.3606445E-1,9.8634416E-1,3.1043637E-1,-2.1091248E-1,2.7628034E-1,9.136405E-1,-1.7124379E-1,3.1113211E-2,-6.7029345E-1,8.444644E-1,-5.8239967E-1,-5.80539E-1,3.341775E-1,3.7195802E-1,-4.9470532E-1,5.6590474E-1,2.95013E-1],"categories":[],"categories_nodes":[],"categories_segments":[],"categories_sizes":[],"default_left":[1,1,1,0,1,1,0,0,1,0,0,1,1,1,0,0,0,0,0,0,0,0,0,0,0,0,0,0,0,0,0],"id":28,"left_children":[1,3,5,7,9,11,13,15,17,19,21,23,25,27,29,-1,-1,-1,-1,-1,-1,-1,-1,-1,-1,-1,-1,-1,-1,-1,-1],"loss_changes":[3.3114572E2,6.003641E1,3.9753174E1,5.7858128E1,3.706696E1,2.3126923E1,3.9654846E0,1.4867168E1,5.6456715E1,2.0081093E1,4.6984816E0,1.30772705E1,1.5089364E0,2.418129E0,1.846283E0,0E0,0E0,0E0,0E0,0E0,0E0,0E0,0E0,0E0,0E0,0E0,0E0,0E0,0E0,0E0,0E0],"parents":[2147483647,0,0,1,1,2,2,3,3,4,4,5,5,6,6,7,7,8,8,9,9,10,10,11,11,12,12,13,13,14,14],"right_children":[2,4,6,8,10,12,14,16,18,20,22,24,26,28,30,-1,-1,-1,-1,-1,-1,-1,-1,-1,-1,-1,-1,-1,-1,-1,-1],"split_conditions":[5E-1,2.219E3,5.5E0,1.25E1,1.367E3,4.55E1,5E-1,5.5E0,6.325E2,2.1055E3,2.8985E3,3.575E2,4.002E3,2.5E0,4.45E1,4.9317207E-2,1.5521819E-2,-1.0545624E-2,1.3814017E-2,4.5682024E-2,-8.5621895E-3,1.5556606E-3,-3.3514675E-2,4.2223223E-2,-2.9119983E-2,-2.902695E-2,1.6708875E-2,1.85979E-2,-2.4735266E-2,2.8295238E-2,1.4750651E-2],"split_indices":[0,4,8,1,6,6,9,8,5,7,6,3,4,6,1,0,0,0,0,0,0,0,0,0,0,0,0,0,0,0,0],"split_type":[0,0,0,0,0,0,0,0,0,0,0,0,0,0,0,0,0,0,0,0,0,0,0,0,0,0,0,0,0,0,0],"sum_hessian":[3.1702188E3,1.8834502E3,1.2867686E3,1.7011309E3,1.8231932E2,7.35702E2,5.5106647E2,1.5197552E2,1.5491553E3,1.4512839E2,3.7190933E1,7.223188E2,1.3383265E1,2.7218002E2,2.7888647E2,4.7286587E1,1.0468894E2,1.2567365E3,2.9241888E2,1.2574412E2,1.938427E1,1.7818142E1,1.937279E1,7.164916E2,5.8271847E0,1.1952837E1,1.4304272E0,2.697433E2,2.436735E0,2.4696631E2,3.1920166E1],"tree_param":{"num_deleted":"0","num_feature":"10","num_nodes":"31","size_leaf_vector":"0"}},{"base_weights":[-6.551992E-1],"categories":[],"categories_nodes":[],"categories_segments":[],"categories_sizes":[],"default_left":[0],"id":29,"left_children":[-1],"loss_changes":[0E0],"parents":[2147483647],"right_children":[-1],"split_conditions":[-3.275996E-2],"split_indices":[0],"split_type":[0],"sum_hessian":[2.5140813E3],"tree_param":{"num_deleted":"0","num_feature":"10","num_nodes":"1","size_leaf_vector":"0"}},{"base_weights":[2.4637486E-1,4.719719E-1,-2.0708153E-1,5.504233E-1,1.8324001E-1,-4.4828168E-1,2.9538045E-2,-3.199423E-2,6.029924E-1,3.0542906E-2,7.772128E-1,-4.9607545E-1,6.080902E-1,1.3708006E-1,-7.337375E-2,-5.8944404E-1,1.8111216E-1,6.9179267E-1,2.4694097E-1,-1.266193E-1,5.2823514E-1,5.2320844E-1,9.530093E-1,-5.1913494E-1,5.2898407E-1,6.9187933E-1,-1.8225197E-2,3.136378E-1,9.4655976E-2,-3.3354545E-1,-4.250221E-2],"categories":[],"categories_nodes":[],"categories_segments":[],"categories_sizes":[],"default_left":[1,1,0,0,1,1,0,0,1,0,0,1,1,0,0,0,0,0,0,0,0,0,0,0,0,0,0,0,0,0,0],"id":30,"left_children":[1,3,5,7,9,11,13,15,17,19,21,23,25,27,29,-1,-1,-1,-1,-1,-1,-1,-1,-1,-1,-1,-1,-1,-1,-1,-1],"loss_changes":[3.2323343E2,4.768573E1,5.994558E1,5.0795044E1,4.0993607E1,2.6559525E1,5.887086E0,1.6529785E1,4.79245E1,2.828785E1,3.6293068E0,1.2048836E1,1.2175665E0,1.9179349E0,2.1705413E0,0E0,0E0,0E0,0E0,0E0,0E0,0E0,0E0,0E0,0E0,0E0,0E0,0E0,0E0,0E0,0E0],"parents":[2147483647,0,0,1,1,2,2,3,3,4,4,5,5,6,6,7,7,8,8,9,9,10,10,11,11,12,12,13,13,14,14],"right_children":[2,4,6,8,10,12,14,16,18,20,22,24,26,28,30,-1,-1,-1,-1,-1,-1,-1,-1,-1,-1,-1,-1,-1,-1,-1,-1],"split_conditions":[5E-1,6.685E2,5.5E0,1.25E1,1.3485E3,5E-1,5E-1,5.5E0,5.805E2,1.1145E3,2.4595E3,5.5E0,1.8015E3,1.25E1,3.5E0,-2.9472202E-2,9.055608E-3,3.4589633E-2,1.2347049E-2,-6.3309646E-3,2.6411757E-2,2.6160423E-2,4.7650468E-2,-2.5956748E-2,2.6449203E-2,3.4593966E-2,-9.1125985E-4,1.568189E-2,4.732799E-3,-1.6677273E-2,-2.1251105E-3],"split_indices":[0,4,8,1,6,3,9,8,5,7,6,7,4,1,1,0,0,0,0,0,0,0,0,0,0,0,0,0,0,0,0],"split_type":[0,0,0,0,0,0,0,0,0,0,0,0,0,0,0,0,0,0,0,0,0,0,0,0,0,0,0,0,0,0,0],"sum_hessian":[3.1577554E3,2.1086497E3,1.0491057E3,1.6574084E3,4.5124133E2,5.190813E2,5.300244E2,1.3724551E2,1.520163E3,3.59797E2,9.1444336E1,4.971203E2,2.1960981E1,2.590193E2,2.7100513E2,3.7468464E1,9.977705E1,1.2159569E3,3.0420596E2,2.7401395E2,8.5783066E1,3.9028778E1,5.2415558E1,4.8666595E2,1.0454346E1,1.9277353E1,2.683627E0,4.894215E1,2.1007713E2,2.7706095E1,2.4329903E2],"tree_param":{"num_deleted":"0","num_feature":"10","num_nodes":"31","size_leaf_vector":"0"}},{"base_weights":[2.5575745E-1,-3.866182E-4,6.2901735E-1,1.0645098E-1,-2.91554E-1,7.8623897E-1,4.4238445E-1,2.7362445E-1,-2.4266253E-1,-3.0956322E-1,5.125729E-1,8.0886394E-1,-4.3807182E-1,3.4719416E-1,5.2334183E-1,4.7605768E-1,-1.5822788E-1,-3.344159E-1,2.4107677E-1,-3.3415613E-1,2.7487332E-1,6.498798E-1,-3.6907917E-1,8.202504E-1,-5.599416E-1,-5.5781305E-1,3.2377687E-1,3.5636497E-1,-4.8823133E-1,5.312793E-1,-2.9130372E-1],"categories":[],"categories_nodes":[],"categories_segments":[],"categories_sizes":[],"default_left":[1,0,0,1,1,1,0,0,1,1,0,1,1,1,1,0,0,0,0,0,0,0,0,0,0,0,0,0,0,0,0],"id":31,"left_children":[1,3,5,7,9,11,13,15,17,19,21,23,25,27,29,-1,-1,-1,-1,-1,-1,-1,-1,-1,-1,-1,-1,-1,-1,-1,-1],"loss_changes":[3.0237387E2,5.8406223E1,3.7418427E1,8.023076E1,7.4573975E0,1.9669373E1,4.3710403E0,8.1313385E1,1.984459E1,7.1860695E0,1.6219368E0,1.1135498E1,1.39396E0,2.2770233E0,2.2064133E0,0E0,0E0,0E0,0E0,0E0,0E0,0E0,0E0,0E0,0E0,0E0,0E0,0E0,0E0,0E0,0E0],"parents":[2147483647,0,0,1,1,2,2,3,3,4,4,5,5,6,6,7,7,8,8,9,9,10,10,11,11,12,12,13,13,14,14],"right_children":[2,4,6,8,10,12,14,16,18,20,22,24,26,28,30,-1,-1,-1,-1,-1,-1,-1,-1,-1,-1,-1,-1,-1,-1,-1,-1],"split_conditions":[5E-1,3.4E2,5.5E0,2.05E2,4.126E3,4.55E1,5E-1,3.3E2,2.5795E3,1.6505E3,2.7345E3,3.575E2,4.002E3,2.5E0,4E0,2.3802884E-2,-7.911394E-3,-1.6720796E-2,1.2053839E-2,-1.6707806E-2,1.3743666E-2,3.249399E-2,-1.845396E-2,4.101252E-2,-2.799708E-2,-2.7890652E-2,1.6188843E-2,1.7818248E-2,-2.4411567E-2,2.6563967E-2,-1.4565187E-2],"split_indices":[0,3,8,6,4,6,9,7,4,5,6,3,4,6,7,0,0,0,0,0,0,0,0,0,0,0,0,0,0,0,0],"split_type":[0,0,0,0,0,0,0,0,0,0,0,0,0,0,0,0,0,0,0,0,0,0,0,0,0,0,0,0,0,0,0],"sum_hessian":[3.1616292E3,1.8755557E3,1.2860734E3,1.3725591E3,5.029966E2,6.9629443E2,5.8977893E2,9.282714E2,4.4428772E2,4.9257983E2,1.0416775E1,6.839938E2,1.2300709E1,2.7349283E2,3.1628613E2,6.3194244E2,2.9632895E2,3.737124E2,7.05753E1,4.7310016E2,1.9479675E1,9.240552E0,1.1762233E0,6.787483E2,5.2454348E0,1.0861416E1,1.4392929E0,2.710904E2,2.402435E0,3.135786E2,2.7074988E0],"tree_param":{"num_deleted":"0","num_feature":"10","num_nodes":"31","size_leaf_vector":"0"}},{"base_weights":[-6.47774E-1],"categories":[],"categories_nodes":[],"categories_segments":[],"categories_sizes":[],"default_left":[0],"id":32,"left_children":[-1],"loss_changes":[0E0],"parents":[2147483647],"right_children":[-1],"split_conditions":[-3.23887E-2],"split_indices":[0],"split_type":[0],"sum_hessian":[2.4490889E3],"tree_param":{"num_deleted":"0","num_feature":"10","num_nodes":"1","size_leaf_vector":"0"}},{"base_weights":[2.3818155E-1,4.529959E-1,-1.9904584E-1,5.28838E-1,1.7381316E-1,-4.3825933E-1,3.0586684E-2,-2.983034E-2,5.790631E-1,2.5737425E-2,7.495561E-1,-4.8569638E-1,5.8711725E-1,1.3331084E-1,-6.833068E-2,-5.820247E-1,1.7768459E-1,6.646555E-1,2.368241E-1,-6.302665E-2,8.5875016E-1,5.0142014E-1,9.220615E-1,-5.088013E-1,5.147522E-1,6.678926E-1,-1.7366566E-2,1.1815421E-1,6.2559116E-1,-3.2512093E-1,-3.8063027E-2],"categories":[],"categories_nodes":[],"categories_segments":[],"categories_sizes":[],"default_left":[1,1,0,0,1,1,0,0,1,1,0,1,1,1,0,0,0,0,0,0,0,0,0,0,0,0,0,0,0,0,0],"id":33,"left_children":[1,3,5,7,9,11,13,15,17,19,21,23,25,27,29,-1,-1,-1,-1,-1,-1,-1,-1,-1,-1,-1,-1,-1,-1,-1,-1],"loss_changes":[2.9571735E2,4.4603912E1,5.7012974E1,4.658075E1,3.8552048E1,2.5008797E1,5.398246E0,1.5897638E1,4.4445343E1,2.674039E1,3.4979973E0,1.150428E1,1.1311126E0,1.8698635E0,2.0927856E0,0E0,0E0,0E0,0E0,0E0,0E0,0E0,0E0,0E0,0E0,0E0,0E0,0E0,0E0,0E0,0E0],"parents":[2147483647,0,0,1,1,2,2,3,3,4,4,5,5,6,6,7,7,8,8,9,9,10,10,11,11,12,12,13,13,14,14],"right_children":[2,4,6,8,10,12,14,16,18,20,22,24,26,28,30,-1,-1,-1,-1,-1,-1,-1,-1,-1,-1,-1,-1,-1,-1,-1,-1],"split_conditions":[5E-1,6.685E2,5.5E0,1.25E1,1.3485E3,5E-1,5E-1,5.5E0,5.805E2,2.582E3,2.4595E3,5.5E0,1.8015E3,5E-1,3.5E0,-2.9101236E-2,8.88423E-3,3.3232775E-2,1.1841205E-2,-3.1513327E-3,4.293751E-2,2.5071008E-2,4.6103075E-2,-2.5440065E-2,2.5737612E-2,3.339463E-2,-8.683283E-4,5.9077106E-3,3.127956E-2,-1.6256047E-2,-1.9031514E-3],"split_indices":[0,4,8,1,6,3,9,8,5,7,6,7,4,2,1,0,0,0,0,0,0,0,0,0,0,0,0,0,0,0,0],"split_type":[0,0,0,0,0,0,0,0,0,0,0,0,0,0,0,0,0,0,0,0,0,0,0,0,0,0,0,0,0,0,0],"sum_hessian":[3.1465579E3,2.109904E3,1.0366538E3,1.6584733E3,4.5143085E2,5.0728976E2,5.29364E2,1.3683417E2,1.521639E3,3.5991003E2,9.152082E1,4.853618E2,2.1927992E1,2.595145E2,2.698495E2,3.688335E1,9.995081E1,1.2164646E3,3.051744E2,3.2608722E2,3.3822826E1,3.9134903E1,5.2385914E1,4.7488596E2,1.04758415E1,1.9250685E1,2.6773076E0,2.5296603E2,6.548461E0,2.742603E1,2.4242346E2],"tree_param":{"num_deleted":"0","num_feature":"10","num_nodes":"31","size_leaf_vector":"0"}},{"base_weights":[2.4724619E-1,1.562261E-3,6.043291E-1,9.132761E-2,-3.3056498E-1,7.5805557E-1,4.2369226E-1,2.4603555E-1,-2.4005392E-1,-4.4230878E-1,7.191463E-3,7.835747E-1,-2.7646032E-1,4.312731E-1,-4.3692222E-1,4.17118E-1,-2.0279332E-1,-2.6841697E-1,3.7977403E-1,-3.6048868E-1,-5.714213E-1,2.6198342E-1,-5.777544E-1,7.9382205E-1,-5.4537463E-1,-6.697E-1,1.9086845E-1,3.417485E-1,5.0737756E-1,-5.6234473E-1,-5.8482587E-3],"categories":[],"categories_nodes":[],"categories_segments":[],"categories_sizes":[],"default_left":[1,1,0,0,0,1,1,1,1,0,0,1,1,0,1,0,0,0,0,0,0,0,0,0,0,0,0,0,0,0,0],"id":34,"left_children":[1,3,5,7,9,11,13,15,17,19,21,23,25,27,29,-1,-1,-1,-1,-1,-1,-1,-1,-1,-1,-1,-1,-1,-1,-1,-1],"loss_changes":[2.7643817E2,5.5712837E1,3.5343292E1,7.5478195E1,1.5009598E1,1.8500824E1,4.0556717E0,7.713106E1,8.341997E0,2.9502907E0,1.50294485E1,9.641266E0,3.3277423E0,3.8333435E0,3.0340385E-1,0E0,0E0,0E0,0E0,0E0,0E0,0E0,0E0,0E0,0E0,0E0,0E0,0E0,0E0,0E0,0E0],"parents":[2147483647,0,0,1,1,2,2,3,3,4,4,5,5,6,6,7,7,8,8,9,9,10,10,11,11,12,12,13,13,14,14],"right_children":[2,4,6,8,10,12,14,16,18,20,22,24,26,28,30,-1,-1,-1,-1,-1,-1,-1,-1,-1,-1,-1,-1,-1,-1,-1,-1],"split_conditions":[5E-1,4.525E2,5.5E0,2.78E2,1.311E3,5.5E0,2.5E0,4.015E2,1.5215E3,1.318E3,2.5025E3,3.575E2,6.865E2,5E-1,1.75E1,2.0855902E-2,-1.0139666E-2,-1.3420849E-2,1.8988702E-2,-1.8024435E-2,-2.8571067E-2,1.3099171E-2,-2.8887719E-2,3.96911E-2,-2.7268732E-2,-3.3485003E-2,9.543423E-3,1.7087426E-2,2.5368879E-2,-2.8117238E-2,-2.9241294E-4],"split_indices":[0,6,8,3,4,7,6,7,4,6,6,3,4,9,5,0,0,0,0,0,0,0,0,0,0,0,0,0,0,0,0],"split_type":[0,0,0,0,0,0,0,0,0,0,0,0,0,0,0,0,0,0,0,0,0,0,0,0,0,0,0,0,0,0,0],"sum_hessian":[3.1500386E3,1.866698E3,1.2833406E3,1.4700946E3,3.966033E2,6.915867E2,5.917539E2,1.00238245E3,4.677122E2,2.9777686E2,9.8826454E1,6.7517426E2,1.6412413E1,5.870814E2,4.6725197E0,7.257972E2,2.7658527E2,4.4778854E2,1.9923656E1,1.8459126E2,1.13185585E2,6.922528E1,2.9601173E1,6.704075E2,4.76676E0,8.677545E0,7.734867E0,2.7227933E2,3.1480206E2,3.383545E0,1.288975E0],"tree_param":{"num_deleted":"0","num_feature":"10","num_nodes":"31","size_leaf_vector":"0"}},{"base_weights":[-6.4085275E-1],"categories":[],"categories_nodes":[],"categories_segments":[],"categories_sizes":[],"default_left":[0],"id":35,"left_children":[-1],"loss_changes":[0E0],"parents":[2147483647],"right_children":[-1],"split_conditions":[-3.2042637E-2],"split_indices":[0],"split_type":[0],"sum_hessian":[2.3845283E3],"tree_param":{"num_deleted":"0","num_feature":"10","num_nodes":"1","size_leaf_vector":"0"}},{"base_weights":[2.3045054E-1,4.351801E-1,-1.9113623E-1,4.7639415E-1,-5.4119553E-2,-4.2845374E-1,3.1688977E-2,3.8893694E-1,7.045409E-1,-2.7906665E-1,6.393101E-1,-4.6721143E-1,7.959507E-1,1.2981422E-1,-6.337458E-2,2.4011472E-1,6.3027453E-1,6.4894307E-1,8.909796E-1,-5.344692E-1,2.4193285E-1,3.2238725E-1,8.8453066E-1,-4.8725337E-1,7.928296E-1,8.700128E-1,-8.749054E-4,3.012246E-1,8.853718E-2,-3.168283E-1,-3.3702258E-2],"categories":[],"categories_nodes":[],"categories_segments":[],"categories_sizes":[],"default_left":[1,1,0,1,1,1,0,0,0,0,0,1,1,0,0,0,0,0,0,0,0,0,0,0,0,0,0,0,0,0,0],"id":36,"left_children":[1,3,5,7,9,11,13,15,17,19,21,23,25,27,29,-1,-1,-1,-1,-1,-1,-1,-1,-1,-1,-1,-1,-1,-1,-1,-1],"loss_changes":[2.7060083E2,4.2576202E1,5.4226585E1,3.855847E1,2.5887594E1,2.393451E1,4.9491205E0,5.0458923E1,4.999298E0,1.678152E1,2.8758926E0,1.2556564E1,9.216709E-1,1.819768E0,2.0176725E0,0E0,0E0,0E0,0E0,0E0,0E0,0E0,0E0,0E0,0E0,0E0,0E0,0E0,0E0,0E0,0E0],"parents":[2147483647,0,0,1,1,2,2,3,3,4,4,5,5,6,6,7,7,8,8,9,9,10,10,11,11,12,12,13,13,14,14],"right_children":[2,4,6,8,10,12,14,16,18,20,22,24,26,28,30,-1,-1,-1,-1,-1,-1,-1,-1,-1,-1,-1,-1,-1,-1,-1,-1],"split_conditions":[5E-1,2.5075E3,5.5E0,2.405E2,1.367E3,4.55E1,5E-1,2.465E2,1.808E3,9.17E2,2.8985E3,3.575E2,4.002E3,1.25E1,3.5E0,1.2005736E-2,3.151373E-2,3.2447156E-2,4.454898E-2,-2.672346E-2,1.20966425E-2,1.6119363E-2,4.4226535E-2,-2.4362668E-2,3.964148E-2,4.3500643E-2,-4.374527E-5,1.50612295E-2,4.426859E-3,-1.5841415E-2,-1.685113E-3],"split_indices":[0,4,8,6,6,6,9,3,6,7,6,3,4,1,1,0,0,0,0,0,0,0,0,0,0,0,0,0,0,0,0],"split_type":[0,0,0,0,0,0,0,0,0,0,0,0,0,0,0,0,0,0,0,0,0,0,0,0,0,0,0,0,0,0,0],"sum_hessian":[3.1332097E3,2.109008E3,1.0242017E3,1.9451898E3,1.6381833E2,4.955252E2,5.286765E2,1.4081124E3,5.370774E2,1.24143875E2,3.967445E1,4.809204E2,1.4604786E1,2.599691E2,2.687074E2,8.722372E2,5.358752E2,4.171577E2,1.1991967E2,8.328859E1,4.085529E1,1.8316677E1,2.1357775E1,4.7399448E2,6.925948E0,1.3278728E1,1.3260587E0,4.9230965E1,2.1073813E2,2.7146975E1,2.4156042E2],"tree_param":{"num_deleted":"0","num_feature":"10","num_nodes":"31","size_leaf_vector":"0"}},{"base_weights":[2.3919721E-1,3.502431E-3,5.81265E-1,9.045544E-2,-3.2165092E-1,7.238049E-1,3.956048E-1,2.3937912E-1,-2.3192921E-1,-4.324374E-1,9.294778E-3,7.45883E-1,-4.5197454E-1,4.089227E-1,-4.734712E-2,4.2594552E-1,-1.4334944E-1,-2.5955802E-1,3.625713E-1,-3.58627E-1,-5.762024E-1,2.530493E-1,-5.651547E-1,7.5685847E-1,-5.618396E-1,-5.631352E-1,2.966412E-1,3.332259E-1,4.8233244E-1,7.0197207E-1,-1.9142108E-1],"categories":[],"categories_nodes":[],"categories_segments":[],"categories_sizes":[],"default_left":[1,1,1,0,0,1,1,0,1,0,0,1,1,0,1,0,0,0,0,0,0,0,0,0,0,0,0,0,0,0,0],"id":37,"left_children":[1,3,5,7,9,11,13,15,17,19,21,23,25,27,29,-1,-1,-1,-1,-1,-1,-1,-1,-1,-1,-1,-1,-1,-1,-1,-1],"loss_changes":[2.5293845E2,5.2573555E1,3.358322E1,7.049274E1,1.4389225E1,1.9099915E1,3.3113937E0,7.175305E1,7.716877E0,2.9127617E0,1.4058678E1,1.0613586E1,1.3274722E0,2.8503342E0,1.9896098E0,0E0,0E0,0E0,0E0,0E0,0E0,0E0,0E0,0E0,0E0,0E0,0E0,0E0,0E0,0E0,0E0],"parents":[2147483647,0,0,1,1,2,2,3,3,4,4,5,5,6,6,7,7,8,8,9,9,10,10,11,11,12,12,13,13,14,14],"right_children":[2,4,6,8,10,12,14,16,18,20,22,24,26,28,30,-1,-1,-1,-1,-1,-1,-1,-1,-1,-1,-1,-1,-1,-1,-1,-1],"split_conditions":[5E-1,4.525E2,5.5E0,2.78E2,1.311E3,4.55E1,5E-1,3.285E2,1.5215E3,1.4925E3,2.5025E3,3.575E2,4.002E3,5E-1,4E0,2.1297276E-2,-7.167472E-3,-1.2977901E-2,1.8128565E-2,-1.793135E-2,-2.881012E-2,1.2652466E-2,-2.8257733E-2,3.7842926E-2,-2.809198E-2,-2.8156761E-2,1.483206E-2,1.6661296E-2,2.4116622E-2,3.5098605E-2,-9.571054E-3],"split_indices":[0,6,8,3,4,6,2,7,4,6,6,3,4,9,1,0,0,0,0,0,0,0,0,0,0,0,0,0,0,0,0],"split_type":[0,0,0,0,0,0,0,0,0,0,0,0,0,0,0,0,0,0,0,0,0,0,0,0,0,0,0,0,0,0,0],"sum_hessian":[3.1363008E3,1.8574637E3,1.2788369E3,1.4661149E3,3.913489E2,7.2178827E2,5.570487E2,1.00302905E3,4.6308585E2,2.9296878E2,9.838011E1,7.088437E2,1.2944602E1,5.408638E2,1.6184908E1,6.742456E2,3.2878342E2,4.4305856E2,2.0027292E1,1.9589095E2,9.707784E1,6.9464096E1,2.8916014E1,7.033617E2,5.4819613E0,1.1486723E1,1.4578793E0,2.6901114E2,2.7185266E2,1.9856046E0,1.4199303E1],"tree_param":{"num_deleted":"0","num_feature":"10","num_nodes":"31","size_leaf_vector":"0"}},{"base_weights":[-6.3434315E-1],"categories":[],"categories_nodes":[],"categories_segments":[],"categories_sizes":[],"default_left":[0],"id":38,"left_children":[-1],"loss_changes":[0E0],"parents":[2147483647],"right_children":[-1],"split_conditions":[-3.171716E-2],"split_indices":[0],"split_type":[0],"sum_hessian":[2.320636E3],"tree_param":{"num_deleted":"0","num_feature":"10","num_nodes":"1","size_leaf_vector":"0"}},{"base_weights":[2.2307505E-1,4.1823953E-1,-1.8334906E-1,4.710588E-1,5.660428E-2,-4.1886964E-1,3.291085E-2,-3.228377E-2,5.1153356E-1,-1.3538821E-1,6.599157E-1,-4.6573138E-1,5.551889E-1,1.2647979E-1,-5.8302898E-2,-5.7679766E-1,1.691932E-1,5.752128E-1,2.0565586E-1,-3.9211467E-1,3.456883E-1,1.3604264E-1,7.503157E-1,-4.889656E-1,4.9237224E-1,6.308399E-1,-1.25833005E-2,2.9286402E-1,8.6307354E-2,-3.083435E-1,-2.9238192E-2],"categories":[],"categories_nodes":[],"categories_segments":[],"categories_sizes":[],"default_left":[1,1,0,0,0,1,0,0,1,0,1,1,1,0,0,0,0,0,0,0,0,0,0,0,0,0,0,0,0,0,0],"id":39,"left_children":[1,3,5,7,9,11,13,15,17,19,21,23,25,27,29,-1,-1,-1,-1,-1,-1,-1,-1,-1,-1,-1,-1,-1,-1,-1,-1],"loss_changes":[2.4753864E2,4.023889E1,5.159985E1,3.7486237E1,3.1339012E1,2.2391785E1,4.5215955E0,1.5218309E1,3.3040863E1,2.551429E1,2.9903545E0,1.0551399E1,9.835286E-1,1.721972E0,1.9423842E0,0E0,0E0,0E0,0E0,0E0,0E0,0E0,0E0,0E0,0E0,0E0,0E0,0E0,0E0,0E0,0E0],"parents":[2147483647,0,0,1,1,2,2,3,3,4,4,5,5,6,6,7,7,8,8,9,9,10,10,11,11,12,12,13,13,14,14],"right_children":[2,4,6,8,10,12,14,16,18,20,22,24,26,28,30,-1,-1,-1,-1,-1,-1,-1,-1,-1,-1,-1,-1,-1,-1,-1,-1],"split_conditions":[5E-1,1.3085E3,5.5E0,1.25E1,1.3725E3,5E-1,5E-1,5.5E0,6.325E2,7.135E2,2.5E0,5.5E0,1.8015E3,1.25E1,3.5E0,-2.8839884E-2,8.45966E-3,2.876064E-2,1.0282793E-2,-1.9605733E-2,1.7284416E-2,6.802132E-3,3.7515786E-2,-2.4448281E-2,2.4618613E-2,3.1541996E-2,-6.2916504E-4,1.4643202E-2,4.315368E-3,-1.5417175E-2,-1.4619096E-3],"split_indices":[0,4,8,1,6,3,9,8,5,7,7,7,4,1,1,0,0,0,0,0,0,0,0,0,0,0,0,0,0,0,0],"split_type":[0,0,0,0,0,0,0,0,0,0,0,0,0,0,0,0,0,0,0,0,0,0,0,0,0,0,0,0,0,0,0],"sum_hessian":[3.1188098E3,2.1070007E3,1.0118089E3,1.8382147E3,2.6878613E2,4.8388785E2,5.279211E2,1.368282E2,1.7013865E3,2.0448744E2,6.429869E1,4.621746E2,2.171324E1,2.604053E2,2.6751575E2,3.6451397E1,1.003768E2,1.4074879E3,2.938985E2,1.3345442E2,7.103303E1,9.831211E0,5.4467476E1,4.5171017E2,1.0464424E1,1.9062271E1,2.6509686E0,4.9421898E1,2.1098341E2,2.6857199E1,2.4065855E2],"tree_param":{"num_deleted":"0","num_feature":"10","num_nodes":"31","size_leaf_vector":"0"}},{"base_weights":[2.3156436E-1,5.445002E-3,5.5966985E-1,-6.22824E-2,4.0455666E-1,7.0828086E-1,3.8920355E-1,7.9614475E-2,-2.7093163E-1,5.8765614E-1,-3.2099503E-1,7.326264E-1,-2.7442604E-1,3.965043E-1,-4.3951502E-1,2.4625495E-1,-2.5216046E-1,-1.4645016E-1,-4.1843772E-1,6.981721E-1,-4.5012063E-1,-5.769063E-2,-6.468378E-1,7.421349E-1,-5.29411E-1,-6.647812E-1,1.7984325E-1,3.148979E-1,4.6622026E-1,-5.624223E-1,-1.30308E-2],"categories":[],"categories_nodes":[],"categories_segments":[],"categories_sizes":[],"default_left":[1,1,0,1,0,1,1,1,0,1,1,1,1,0,1,0,0,0,0,0,0,0,0,0,0,0,0,0,0,0,0],"id":40,"left_children":[1,3,5,7,9,11,13,15,17,19,21,23,25,27,29,-1,-1,-1,-1,-1,-1,-1,-1,-1,-1,-1,-1,-1,-1,-1,-1],"loss_changes":[2.3161826E2,5.0011482E1,3.1991852E1,4.6854015E1,3.5846935E1,1.6452118E1,3.77697E0,5.2158684E1,1.169997E1,2.4936096E1,4.6586328E0,8.350403E0,3.1604788E0,3.214325E0,2.901063E-1,0E0,0E0,0E0,0E0,0E0,0E0,0E0,0E0,0E0,0E0,0E0,0E0,0E0,0E0,0E0,0E0],"parents":[2147483647,0,0,1,1,2,2,3,3,4,4,5,5,6,6,7,7,8,8,9,9,10,10,11,11,12,12,13,13,14,14],"right_children":[2,4,6,8,10,12,14,16,18,20,22,24,26,28,30,-1,-1,-1,-1,-1,-1,-1,-1,-1,-1,-1,-1,-1,-1,-1,-1],"split_conditions":[5E-1,1.3085E3,5.5E0,1.35E1,1.3725E3,5.5E0,2.5E0,1.985E2,4.565E2,2.582E3,2.8985E3,3.575E2,6.865E2,5E-1,1.75E1,1.2312748E-2,-1.2608023E-2,-7.3225084E-3,-2.0921886E-2,3.4908604E-2,-2.2506032E-2,-2.8845316E-3,-3.234189E-2,3.710675E-2,-2.6470551E-2,-3.3239063E-2,8.9921625E-3,1.5744895E-2,2.3311013E-2,-2.8121114E-2,-6.5154E-4],"split_indices":[0,4,8,6,6,7,6,3,6,7,6,3,4,9,5,0,0,0,0,0,0,0,0,0,0,0,0,0,0,0,0],"split_type":[0,0,0,0,0,0,0,0,0,0,0,0,0,0,0,0,0,0,0,0,0,0,0,0,0,0,0,0,0,0,0],"sum_hessian":[3.1209597E3,1.8482346E3,1.2727251E3,1.5808207E3,2.67414E2,6.782647E2,5.944603E2,9.4129144E2,6.3952924E2,2.1368E2,5.3734005E1,6.62116E2,1.6148733E1,5.89786E2,4.674293E0,6.2675116E2,3.145403E2,3.479145E2,2.9161475E2,1.9341039E2,2.0269602E1,3.0369947E1,2.3364058E1,6.575736E2,4.5424013E0,8.43613E0,7.712603E0,2.7426282E2,3.1552322E2,3.3811486E0,1.2931446E0],"tree_param":{"num_deleted":"0","num_feature":"10","num_nodes":"31","size_leaf_vector":"0"}},{"base_weights":[-6.281963E-1],"categories":[],"categories_nodes":[],"categories_segments":[],"categories_sizes":[],"default_left":[0],"id":41,"left_children":[-1],"loss_changes":[0E0],"parents":[2147483647],"right_children":[-1],"split_conditions":[-3.1409815E-2],"split_indices":[0],"split_type":[0],"sum_hessian":[2.257667E3],"tree_param":{"num_deleted":"0","num_feature":"10","num_nodes":"1","size_leaf_vector":"0"}},{"base_weights":[2.1606809E-1,4.022721E-1,-1.7571008E-1,4.719408E-1,1.454559E-1,-4.0943927E-1,3.4034666E-2,-3.2284543E-2,5.1734126E-1,1.1139347E-2,6.7058766E-1,-4.4786906E-1,7.545682E-1,1.2332605E-1,-5.3515453E-2,-5.707299E-1,1.6376996E-1,5.978209E-1,2.0081149E-1,-7.236904E-2,7.902122E-1,4.4132957E-1,8.331632E-1,-4.6752465E-1,7.4760145E-1,8.242688E-1,2.8315468E-3,1.0879834E-1,5.9270406E-1,-6.350554E-2,6.366918E-1],"categories":[],"categories_nodes":[],"categories_segments":[],"categories_sizes":[],"default_left":[1,1,0,0,1,1,0,0,1,1,0,1,1,1,1,0,0,0,0,0,0,0,0,0,0,0,0,0,0,0,0],"id":42,"left_children":[1,3,5,7,9,11,13,15,17,19,21,23,25,27,29,-1,-1,-1,-1,-1,-1,-1,-1,-1,-1,-1,-1,-1,-1,-1,-1],"loss_changes":[2.2645627E2,3.7572906E1,4.9059563E1,3.789026E1,3.1759537E1,2.1507599E1,4.135812E0,1.4619376E1,3.8545593E1,2.3456541E1,3.0507317E0,1.11291275E1,8.0967903E-1,1.720751E0,1.8842136E0,0E0,0E0,0E0,0E0,0E0,0E0,0E0,0E0,0E0,0E0,0E0,0E0,0E0,0E0,0E0,0E0],"parents":[2147483647,0,0,1,1,2,2,3,3,4,4,5,5,6,6,7,7,8,8,9,9,10,10,11,11,12,12,13,13,14,14],"right_children":[2,4,6,8,10,12,14,16,18,20,22,24,26,28,30,-1,-1,-1,-1,-1,-1,-1,-1,-1,-1,-1,-1,-1,-1,-1,-1],"split_conditions":[5E-1,6.685E2,5.5E0,1.25E1,1.3485E3,4.55E1,5E-1,5.5E0,5.805E2,2.582E3,2.4595E3,3.575E2,4.002E3,5E-1,4E0,-2.8536497E-2,8.188498E-3,2.9891044E-2,1.0040575E-2,-3.618452E-3,3.951061E-2,2.206648E-2,4.165816E-2,-2.3376232E-2,3.7380073E-2,4.121344E-2,1.4157734E-4,5.439917E-3,2.9635204E-2,-3.175277E-3,3.183459E-2],"split_indices":[0,4,8,1,6,6,9,8,5,7,6,3,4,2,7,0,0,0,0,0,0,0,0,0,0,0,0,0,0,0,0],"split_type":[0,0,0,0,0,0,0,0,0,0,0,0,0,0,0,0,0,0,0,0,0,0,0,0,0,0,0,0,0,0,0],"sum_hessian":[3.1022693E3,2.1028171E3,9.994521E2,1.6534377E3,4.493794E2,4.7224902E2,5.2720306E2,1.3660202E2,1.5168357E3,3.5866293E2,9.071646E1,4.5775156E2,1.4497467E1,2.6080368E2,2.6639938E2,3.5952038E1,1.0064999E2,1.2086423E3,3.0819333E2,3.2475928E2,3.3903656E1,3.9180367E1,5.15361E1,4.5094614E2,6.805417E0,1.31790285E1,1.318438E0,2.541687E2,6.6349797E0,2.6349356E2,2.905825E0],"tree_param":{"num_deleted":"0","num_feature":"10","num_nodes":"31","size_leaf_vector":"0"}},{"base_weights":[2.2434033E-1,7.4082958E-3,5.393766E-1,9.774392E-2,-2.751219E-1,6.779327E-1,3.635684E-1,2.125468E-1,-2.835822E-1,-2.9119274E-1,4.875132E-1,6.989835E-1,-4.4350386E-1,3.7648624E-1,-6.571058E-2,3.5693642E-1,-1.879822E-1,-3.4480917E-1,2.215668E-1,-3.2179168E-1,6.675036E-2,6.9709116E-1,-8.5994676E-2,7.092659E-1,-5.485797E-1,-5.52571E-1,2.7325866E-1,4.0447736E-1,1.9284968E-1,6.7000157E-1,-2.0573144E-1],"categories":[],"categories_nodes":[],"categories_segments":[],"categories_sizes":[],"default_left":[1,1,1,1,1,1,1,1,1,0,0,1,1,0,1,0,0,0,0,0,0,0,0,0,0,0,0,0,0,0,0],"id":43,"left_children":[1,3,5,7,9,11,13,15,17,19,21,23,25,27,29,-1,-1,-1,-1,-1,-1,-1,-1,-1,-1,-1,-1,-1,-1,-1,-1],"loss_changes":[2.121968E2,4.6983948E1,3.0596802E1,6.112189E1,5.6082687E0,1.6999237E1,3.1313858E0,6.210004E1,1.0072151E1,4.812462E0,1.2112327E0,9.295685E0,1.2171316E0,2.7183151E0,1.9114732E0,0E0,0E0,0E0,0E0,0E0,0E0,0E0,0E0,0E0,0E0,0E0,0E0,0E0,0E0,0E0,0E0],"parents":[2147483647,0,0,1,1,2,2,3,3,4,4,5,5,6,6,7,7,8,8,9,9,10,10,11,11,12,12,13,13,14,14],"right_children":[2,4,6,8,10,12,14,16,18,20,22,24,26,28,30,-1,-1,-1,-1,-1,-1,-1,-1,-1,-1,-1,-1,-1,-1,-1,-1],"split_conditions":[5E-1,3.4E2,5.5E0,5.075E2,4.126E3,4.55E1,5E-1,4.015E2,4.0975E3,1.3585E3,5.98E2,3.575E2,4.002E3,4.25E1,4E0,1.784682E-2,-9.39911E-3,-1.724046E-2,1.107834E-2,-1.6089585E-2,3.337518E-3,3.4854557E-2,-4.299734E-3,3.5463296E-2,-2.7428985E-2,-2.762855E-2,1.3662933E-2,2.0223869E-2,9.642485E-3,3.350008E-2,-1.0286572E-2],"split_indices":[0,3,8,6,4,6,2,7,4,5,7,3,4,1,1,0,0,0,0,0,0,0,0,0,0,0,0,0,0,0,0],"split_type":[0,0,0,0,0,0,0,0,0,0,0,0,0,0,0,0,0,0,0,0,0,0,0,0,0,0,0,0,0,0,0],"sum_hessian":[3.1040076E3,1.8388267E3,1.265181E3,1.3938226E3,4.4500397E2,7.059553E2,5.592257E2,1.0716361E3,3.221865E2,4.3642545E2,8.578518E0,6.9331757E2,1.2637777E1,5.430085E2,1.621722E1,7.877597E2,2.8387643E2,2.8764023E2,3.454624E1,4.0214856E2,3.4276882E1,6.1248255E0,2.453692E0,6.8807794E2,5.2396364E0,1.1167528E1,1.4702487E0,4.7014343E2,7.286504E1,1.9877844E0,1.4229436E1],"tree_param":{"num_deleted":"0","num_feature":"10","num_nodes":"31","size_leaf_vector":"0"}},{"base_weights":[-6.223954E-1],"categories":[],"categories_nodes":[],"categories_segments":[],"categories_sizes":[],"default_left":[0],"id":44,"left_children":[-1],"loss_changes":[0E0],"parents":[2147483647],"right_children":[-1],"split_conditions":[-3.111977E-2],"split_indices":[0],"split_type":[0],"sum_hessian":[2.1955068E3],"tree_param":{"num_deleted":"0","num_feature":"10","num_nodes":"1","size_leaf_vector":"0"}},{"base_weights":[2.094712E-1,3.872333E-1,-1.6813414E-1,4.2531064E-1,-6.8190776E-2,-4.0020555E-1,3.5367332E-2,3.344439E-1,6.218812E-1,-2.7612886E-1,5.713162E-1,-4.429333E-1,6.10651E-1,1.2158993E-1,-4.9559638E-2,2.0105192E-1,5.976718E-1,5.525268E-1,8.280276E-1,-4.058817E-1,6.217279E-1,2.7193803E-1,8.115863E-1,-4.685558E-1,4.4415313E-1,9.0505934E-1,1.8296114E-1,1.059848E-1,5.4313326E-1,-2.966496E-1,-2.1085655E-2],"categories":[],"categories_nodes":[],"categories_segments":[],"categories_sizes":[],"default_left":[1,1,0,1,1,1,0,1,0,1,0,1,1,0,0,0,0,0,0,0,0,0,0,0,0,0,0,0,0,0,0],"id":45,"left_children":[1,3,5,7,9,11,13,15,17,19,21,23,25,27,29,-1,-1,-1,-1,-1,-1,-1,-1,-1,-1,-1,-1,-1,-1,-1,-1],"loss_changes":[2.071608E2,3.6411896E1,4.668528E1,3.4377655E1,2.1798784E1,2.021582E1,3.8683064E0,4.645117E1,8.27739E0,1.46381445E1,2.6751108E0,1.0291771E1,2.2454424E0,1.6660373E0,1.8682443E0,0E0,0E0,0E0,0E0,0E0,0E0,0E0,0E0,0E0,0E0,0E0,0E0,0E0,0E0,0E0,0E0],"parents":[2147483647,0,0,1,1,2,2,3,3,4,4,5,5,6,6,7,7,8,8,9,9,10,10,11,11,12,12,13,13,14,14],"right_children":[2,4,6,8,10,12,14,16,18,20,22,24,26,28,30,-1,-1,-1,-1,-1,-1,-1,-1,-1,-1,-1,-1,-1,-1,-1,-1],"split_conditions":[5E-1,2.5075E3,5.5E0,1.005E2,1.367E3,5.5E0,5E-1,3.4E2,1.3345E3,2.52E3,2.8985E3,3.9E1,6.865E2,2.5E0,3.5E0,1.0052596E-2,2.9883591E-2,2.762634E-2,4.1401383E-2,-2.0294085E-2,3.1086395E-2,1.3596902E-2,4.0579315E-2,-2.342779E-2,2.2207657E-2,4.5252968E-2,9.148057E-3,5.29924E-3,2.7156664E-2,-1.4832481E-2,-1.0542828E-3],"split_indices":[0,4,8,7,6,7,9,3,7,7,6,3,4,6,1,0,0,0,0,0,0,0,0,0,0,0,0,0,0,0,0],"split_type":[0,0,0,0,0,0,0,0,0,0,0,0,0,0,0,0,0,0,0,0,0,0,0,0,0,0,0,0,0,0,0],"sum_hessian":[3.0842744E3,2.097042E3,9.8723236E2,1.9353004E3,1.6174161E2,4.6078748E2,5.264449E2,1.3253467E3,6.099537E2,1.22483765E2,3.925784E1,4.4263943E2,1.8148031E1,2.610156E2,2.654293E2,8.807741E2,4.4457263E2,4.5915808E2,1.5079562E2,1.074969E2,1.4986863E1,1.8428102E1,2.0829737E1,4.3067175E2,1.1967681E1,1.00877695E1,8.060263E0,2.5290472E2,8.11087E0,2.645358E1,2.3897571E2],"tree_param":{"num_deleted":"0","num_feature":"10","num_nodes":"31","size_leaf_vector":"0"}},{"base_weights":[2.1746165E-1,9.334476E-3,5.2017576E-1,-7.7123955E-2,2.9302472E-1,6.655313E-1,3.581654E-1,4.2345408E-1,-1.3921623E-1,4.2097947E-1,-3.6407787E-1,6.889943E-1,-2.7245417E-1,3.6519688E-1,-4.4001067E-1,8.408695E-1,2.3345444E-1,-2.529189E-1,2.2096866E-1,4.9647012E-1,-4.665142E-1,-6.552583E-2,-5.94378E-1,6.978953E-1,-5.1429474E-1,-6.6076064E-1,1.7017674E-1,3.767133E-1,-5.1507E-2,-5.602265E-1,-1.9694922E-2],"categories":[],"categories_nodes":[],"categories_segments":[],"categories_sizes":[],"default_left":[1,1,0,0,1,1,1,0,1,1,0,1,1,1,1,0,0,0,0,0,0,0,0,0,0,0,0,0,0,0,0],"id":46,"left_children":[1,3,5,7,9,11,13,15,17,19,21,23,25,27,29,-1,-1,-1,-1,-1,-1,-1,-1,-1,-1,-1,-1,-1,-1,-1,-1],"loss_changes":[1.9445563E2,4.4908512E1,2.9374542E1,4.367848E1,3.6110863E1,1.4749329E1,3.5103912E0,1.2105522E1,5.121785E1,2.4245007E1,4.790514E0,7.2756042E0,3.0108786E0,2.8612213E0,2.7523506E-1,0E0,0E0,0E0,0E0,0E0,0E0,0E0,0E0,0E0,0E0,0E0,0E0,0E0,0E0,0E0,0E0],"parents":[2147483647,0,0,1,1,2,2,3,3,4,4,5,5,6,6,7,7,8,8,9,9,10,10,11,11,12,12,13,13,14,14],"right_children":[2,4,6,8,10,12,14,16,18,20,22,24,26,28,30,-1,-1,-1,-1,-1,-1,-1,-1,-1,-1,-1,-1,-1,-1,-1,-1],"split_conditions":[5E-1,6.685E2,5.5E0,1.25E1,1.3725E3,5.5E0,2.5E0,5.5E0,5.805E2,2.582E3,2.4595E3,3.575E2,6.865E2,5E-1,1.75E1,4.2043474E-2,1.1672722E-2,-1.2645945E-2,1.1048433E-2,2.4823507E-2,-2.332571E-2,-3.2762915E-3,-2.97189E-2,3.4894764E-2,-2.5714738E-2,-3.303803E-2,8.508838E-3,1.8835666E-2,-2.57535E-3,-2.8011326E-2,-9.847461E-4],"split_indices":[0,4,8,1,6,7,6,8,5,7,6,3,4,2,5,0,0,0,0,0,0,0,0,0,0,0,0,0,0,0,0],"split_type":[0,0,0,0,0,0,0,0,0,0,0,0,0,0,0,0,0,0,0,0,0,0,0,0,0,0,0,0,0,0,0],"sum_hessian":[3.085526E3,1.8290304E3,1.2564955E3,1.402368E3,4.266624E2,6.6065155E2,5.958439E2,1.5411308E2,1.2482549E3,3.5742245E2,6.923999E1,6.447881E2,1.5863467E1,5.911784E2,4.6654773E0,4.7135086E1,1.06978E2,9.4898004E2,2.9927487E2,3.298093E2,2.7613152E1,3.0711424E1,3.8528564E1,6.404704E2,4.317687E0,8.187779E0,7.6756883E0,5.7537286E2,1.580555E1,3.369022E0,1.2964554E0],"tree_param":{"num_deleted":"0","num_feature":"10","num_nodes":"31","size_leaf_vector":"0"}},{"base_weights":[-6.169697E-1],"categories":[],"categories_nodes":[],"categories_segments":[],"categories_sizes":[],"default_left":[0],"id":47,"left_children":[-1],"loss_changes":[0E0],"parents":[2147483647],"right_children":[-1],"split_conditions":[-3.0848486E-2],"split_indices":[0],"split_type":[0],"sum_hessian":[2.1344E3],"tree_param":{"num_deleted":"0","num_feature":"10","num_nodes":"1","size_leaf_vector":"0"}},{"base_weights":[2.030548E-1,3.727345E-1,-1.6070884E-1,2.9081896E-1,5.786669E-1,-5.340147E-1,-3.756368E-2,1.5324405E-1,5.33475E-1,6.193982E-1,1.774615E-1,-5.7350785E-1,6.7011696E-1,4.8389113E-1,-7.613136E-2,-4.7952868E-2,4.7922018E-1,5.6110066E-1,9.5387585E-2,5.613842E-1,8.0376E-1,-1.3103035E-2,7.067438E-1,-5.8489865E-1,5.3814805E-1,7.956391E-1,7.82597E-3,5.332052E-1,-4.238206E-1,-4.4765332E-1,3.654793E-2],"categories":[],"categories_nodes":[],"categories_segments":[],"categories_sizes":[],"default_left":[1,1,0,0,0,1,0,0,0,0,0,1,1,1,0,0,0,0,0,0,0,0,0,0,0,0,0,0,0,0,0],"id":48,"left_children":[1,3,5,7,9,11,13,15,17,19,21,23,25,27,29,-1,-1,-1,-1,-1,-1,-1,-1,-1,-1,-1,-1,-1,-1,-1,-1],"loss_changes":[1.8934204E2,3.5113037E1,4.4853966E1,4.9936546E1,9.59996E0,1.1895363E1,1.4820349E1,6.282682E1,6.502533E0,5.3138733E0,5.6741548E0,3.2893143E0,6.7113876E-1,2.4981422E0,2.8706E1,0E0,0E0,0E0,0E0,0E0,0E0,0E0,0E0,0E0,0E0,0E0,0E0,0E0,0E0,0E0,0E0],"parents":[2147483647,0,0,1,1,2,2,3,3,4,4,5,5,6,6,7,7,8,8,9,9,10,10,11,11,12,12,13,13,14,14],"right_children":[2,4,6,8,10,12,14,16,18,20,22,24,26,28,30,-1,-1,-1,-1,-1,-1,-1,-1,-1,-1,-1,-1,-1,-1,-1,-1],"split_conditions":[5E-1,2.585E2,3.5E0,2.475E2,4.074E3,4.7E1,4.5E0,2.475E2,1.6505E3,1.808E3,2.9285E3,4.07E2,4.002E3,5.85E1,5.5E0,-2.3976434E-3,2.396101E-2,2.8055033E-2,4.7693793E-3,2.8069211E-2,4.0188E-2,-6.551518E-4,3.533719E-2,-2.9244933E-2,2.6907403E-2,3.9781954E-2,3.912985E-4,2.6660262E-2,-2.119103E-2,-2.2382667E-2,1.8273965E-3],"split_indices":[0,6,8,3,4,6,8,7,5,6,6,3,4,1,8,0,0,0,0,0,0,0,0,0,0,0,0,0,0,0,0],"split_type":[0,0,0,0,0,0,0,0,0,0,0,0,0,0,0,0,0,0,0,0,0,0,0,0,0,0,0,0,0,0,0],"sum_hessian":[3.0656233E3,2.0904812E3,9.751419E2,1.4972997E3,5.931816E2,2.4105731E2,7.340846E2,9.565888E2,5.407109E2,5.38017E2,5.5164555E1,2.3390926E2,7.1480546E0,4.9759815E1,6.843248E2,5.920317E2,3.6455713E2,5.0837222E2,3.2338634E1,4.1231647E2,1.2570057E2,4.127795E1,1.3886606E1,2.3200583E2,1.9034352E0,5.839893E0,1.3081617E0,4.7587093E1,2.1727242E0,1.5855856E2,5.2576624E2],"tree_param":{"num_deleted":"0","num_feature":"10","num_nodes":"31","size_leaf_vector":"0"}},{"base_weights":[2.1092409E-1,1.12652965E-2,5.020081E-1,8.962318E-2,-2.9237542E-1,6.3818055E-1,3.3442673E-1,2.1924715E-1,-2.0204856E-1,-4.0279758E-1,8.696714E-3,6.583899E-1,-4.3519247E-1,3.4654337E-1,-6.929331E-2,3.9398095E-1,-1.1695936E-1,-2.3763703E-1,2.3931883E-1,-3.2154125E-1,-5.325459E-1,2.1791372E-1,-5.3050995E-1,6.6811365E-1,-5.3649426E-1,-5.421643E-1,2.5091946E-1,3.7376738E-1,1.6832419E-1,6.517428E-1,-2.0616913E-1],"categories":[],"categories_nodes":[],"categories_segments":[],"categories_sizes":[],"default_left":[1,1,1,0,0,1,1,0,0,0,0,1,1,0,1,0,0,0,0,0,0,0,0,0,0,0,0,0,0,0,0],"id":49,"left_children":[1,3,5,7,9,11,13,15,17,19,21,23,25,27,29,-1,-1,-1,-1,-1,-1,-1,-1,-1,-1,-1,-1,-1,-1,-1,-1],"loss_changes":[1.7823495E2,4.333251E1,2.8260132E1,5.4773106E1,1.2423719E1,1.5195221E1,2.7705498E0,5.8948692E1,7.060959E0,2.7108116E0,1.1535625E1,8.200867E0,1.1124103E0,2.5826492E0,1.831218E0,0E0,0E0,0E0,0E0,0E0,0E0,0E0,0E0,0E0,0E0,0E0,0E0,0E0,0E0,0E0,0E0],"parents":[2147483647,0,0,1,1,2,2,3,3,4,4,5,5,6,6,7,7,8,8,9,9,10,10,11,11,12,12,13,13,14,14],"right_children":[2,4,6,8,10,12,14,16,18,20,22,24,26,28,30,-1,-1,-1,-1,-1,-1,-1,-1,-1,-1,-1,-1,-1,-1,-1,-1],"split_conditions":[5E-1,4.525E2,5.5E0,2.78E2,1.2415E3,4.55E1,5E-1,2.475E2,1.418E3,1.3045E3,2.5025E3,3.575E2,4.002E3,4.25E1,4E0,1.9699048E-2,-5.847968E-3,-1.1881852E-2,1.1965942E-2,-1.6077062E-2,-2.6627297E-2,1.0895686E-2,-2.6525497E-2,3.3405684E-2,-2.6824713E-2,-2.7108217E-2,1.2545973E-2,1.868837E-2,8.416209E-3,3.258714E-2,-1.0308457E-2],"split_indices":[0,6,8,3,4,6,2,7,5,6,6,3,4,1,1,0,0,0,0,0,0,0,0,0,0,0,0,0,0,0,0],"split_type":[0,0,0,0,0,0,0,0,0,0,0,0,0,0,0,0,0,0,0,0,0,0,0,0,0,0,0,0,0,0,0],"sum_hessian":[3.065902E3,1.8191554E3,1.2467468E3,1.4465594E3,3.7259604E2,6.8628253E2,5.6046423E2,1.00165497E3,4.4490445E2,2.7236478E2,1.0023125E2,6.739795E2,1.2303017E1,5.4427094E2,1.6193304E1,6.5899115E2,3.4266382E2,4.1213467E2,3.2769787E1,1.6961792E2,1.02746864E2,7.264155E1,2.7589706E1,6.689763E2,5.0031466E0,1.0825078E1,1.4779384E0,4.7119583E2,7.307511E1,1.9834261E0,1.4209879E1],"tree_param":{"num_deleted":"0","num_feature":"10","num_nodes":"31","size_leaf_vector":"0"}},{"base_weights":[-6.117508E-1],"categories":[],"categories_nodes":[],"categories_segments":[],"categories_sizes":[],"default_left":[0],"id":50,"left_children":[-1],"loss_changes":[0E0],"parents":[2147483647],"right_children":[-1],"split_conditions":[-3.058754E-2],"split_indices":[0],"split_type":[0],"sum_hessian":[2.0743162E3],"tree_param":{"num_deleted":"0","num_feature":"10","num_nodes":"1","size_leaf_vector":"0"}},{"base_weights":[1.9699973E-1,3.5918796E-1,-1.5335424E-1,3.959652E-1,-8.071555E-2,-5.270967E-1,-3.2950092E-2,3.0995205E-1,5.825954E-1,-2.7841347E-1,5.333697E-1,-5.6660324E-1,6.4903E-1,4.793867E-1,-7.117395E-2,1.8533726E-1,5.580523E-1,5.147475E-1,7.852848E-1,-5.146451E-1,1.8735178E-1,2.4940942E-1,7.6806617E-1,-5.779928E-1,5.244657E-1,7.7149284E-1,7.416781E-3,5.26884E-1,-4.171173E-1,-4.3876263E-1,3.7778765E-2],"categories":[],"categories_nodes":[],"categories_segments":[],"categories_sizes":[],"default_left":[1,1,0,1,1,1,0,1,0,0,0,1,1,1,0,0,0,0,0,0,0,0,0,0,0,0,0,0,0,0,0],"id":51,"left_children":[1,3,5,7,9,11,13,15,17,19,21,23,25,27,29,-1,-1,-1,-1,-1,-1,-1,-1,-1,-1,-1,-1,-1,-1,-1,-1],"loss_changes":[1.7319852E2,3.373398E1,4.3403534E1,3.068216E1,1.9761333E1,1.1288948E1,1.4346961E1,4.0651108E1,7.9212646E0,1.361503E1,2.4533138E0,3.135666E0,6.310947E-1,2.3859396E0,2.729015E1,0E0,0E0,0E0,0E0,0E0,0E0,0E0,0E0,0E0,0E0,0E0,0E0,0E0,0E0,0E0,0E0],"parents":[2147483647,0,0,1,1,2,2,3,3,4,4,5,5,6,6,7,7,8,8,9,9,10,10,11,11,12,12,13,13,14,14],"right_children":[2,4,6,8,10,12,14,16,18,20,22,24,26,28,30,-1,-1,-1,-1,-1,-1,-1,-1,-1,-1,-1,-1,-1,-1,-1,-1],"split_conditions":[5E-1,2.5075E3,3.5E0,1.005E2,1.367E3,4.7E1,4.5E0,3.4E2,1.3345E3,9.17E2,2.8985E3,4.07E2,4.002E3,5.85E1,5.5E0,9.266864E-3,2.7902616E-2,2.5737375E-2,3.9264243E-2,-2.5732255E-2,9.367589E-3,1.2470472E-2,3.840331E-2,-2.889964E-2,2.6223285E-2,3.8574643E-2,3.7083906E-4,2.63442E-2,-2.0855865E-2,-2.1938132E-2,1.8889382E-3],"split_indices":[0,4,8,7,6,6,8,3,7,7,6,3,4,1,8,0,0,0,0,0,0,0,0,0,0,0,0,0,0,0,0],"split_type":[0,0,0,0,0,0,0,0,0,0,0,0,0,0,0,0,0,0,0,0,0,0,0,0,0,0,0,0,0,0,0],"sum_hessian":[3.0460505E3,2.0821448E3,9.6390576E2,1.9215938E3,1.60551E2,2.3404301E2,7.2986273E2,1.3171935E3,6.0440027E2,1.21864655E2,3.8686348E1,2.2693832E2,7.104703E0,4.9870995E1,6.7999176E2,8.7796155E2,4.3923196E2,4.5547504E2,1.4892525E2,8.078589E1,4.1078766E1,1.8439272E1,2.0247074E1,2.250592E2,1.8791147E0,5.7960095E0,1.3086933E0,4.7753284E1,2.1177092E0,1.5477592E2,5.252158E2],"tree_param":{"num_deleted":"0","num_feature":"10","num_nodes":"31","size_leaf_vector":"0"}},{"base_weights":[2.0462434E-1,1.2987414E-2,4.8472857E-1,-3.7599526E-2,4.6472207E-1,6.2809235E-1,3.300436E-1,6.2671274E-2,-2.8120372E-1,6.5263575E-1,-2.25318E-1,6.509603E-1,-2.7172247E-1,3.3682397E-1,-4.3989936E-1,1.6306971E-1,-3.5072598E-1,-1.9551462E-1,-5.470031E-1,7.644505E-1,-1.7796409E-1,-5.762036E-1,1.1362156E-1,6.59567E-1,-5.057229E-1,-6.55461E-1,1.574969E-1,2.6209638E-1,4.0169206E-1,-5.5812967E-1,-2.4294341E-2],"categories":[],"categories_nodes":[],"categories_segments":[],"categories_sizes":[],"default_left":[1,1,0,1,1,1,1,1,0,1,0,1,1,0,1,0,0,0,0,0,0,0,0,0,0,0,0,0,0,0,0],"id":52,"left_children":[1,3,5,7,9,11,13,15,17,19,21,23,25,27,29,-1,-1,-1,-1,-1,-1,-1,-1,-1,-1,-1,-1,-1,-1,-1,-1],"loss_changes":[1.6351547E2,4.137562E1,2.7235596E1,3.9795982E1,2.3790287E1,1.3369598E1,3.266632E0,4.7972477E1,1.0712563E1,1.3469566E1,4.795274E0,6.5610657E0,2.836679E0,2.7677994E0,2.6397657E-1,0E0,0E0,0E0,0E0,0E0,0E0,0E0,0E0,0E0,0E0,0E0,0E0,0E0,0E0,0E0,0E0],"parents":[2147483647,0,0,1,1,2,2,3,3,4,4,5,5,6,6,7,7,8,8,9,9,10,10,11,11,12,12,13,13,14,14],"right_children":[2,4,6,8,10,12,14,16,18,20,22,24,26,28,30,-1,-1,-1,-1,-1,-1,-1,-1,-1,-1,-1,-1,-1,-1,-1,-1],"split_conditions":[5E-1,2.219E3,5.5E0,1.005E2,1.175E3,5.5E0,2.5E0,7.115E2,1.3345E3,2.1055E3,4.566E3,3.575E2,6.865E2,5E-1,1.75E1,8.153486E-3,-1.75363E-2,-9.775731E-3,-2.7350156E-2,3.8222525E-2,-8.898205E-3,-2.8810179E-2,5.6810784E-3,3.2978352E-2,-2.5286144E-2,-3.277305E-2,7.8748455E-3,1.3104819E-2,2.0084603E-2,-2.7906483E-2,-1.214717E-3],"split_indices":[0,4,8,7,6,7,6,3,7,7,4,3,4,9,5,0,0,0,0,0,0,0,0,0,0,0,0,0,0,0,0],"split_type":[0,0,0,0,0,0,0,0,0,0,0,0,0,0,0,0,0,0,0,0,0,0,0,0,0,0,0,0,0,0,0],"sum_hessian":[3.0453284E3,1.8088362E3,1.2364922E3,1.6274995E3,1.8133673E2,6.4014154E2,5.9635065E2,1.1534617E3,4.740378E2,1.4256676E2,3.876998E1,6.2454584E2,1.5595709E1,5.9170245E2,4.648192E0,9.285563E2,2.2490538E2,3.5978497E2,1.1425284E2,1.2572182E2,1.6844934E1,1.8705345E1,2.0064638E1,6.2035956E2,4.1862288E0,7.95581E0,7.639899E0,2.7729776E2,3.144047E2,3.3517587E0,1.2964334E0],"tree_param":{"num_deleted":"0","num_feature":"10","num_nodes":"31","size_leaf_vector":"0"}},{"base_weights":[-6.0685366E-1],"categories":[],"categories_nodes":[],"categories_segments":[],"categories_sizes":[],"default_left":[0],"id":53,"left_children":[-1],"loss_changes":[0E0],"parents":[2147483647],"right_children":[-1],"split_conditions":[-3.0342683E-2],"split_indices":[0],"split_type":[0],"sum_hessian":[2.0153363E3],"tree_param":{"num_deleted":"0","num_feature":"10","num_nodes":"1","size_leaf_vector":"0"}},{"base_weights":[1.911026E-1,3.4602696E-1,-1.4617175E-1,2.772093E-1,5.7789475E-1,-5.2032053E-1,-2.8538816E-2,1.5743569E-1,5.0108486E-1,6.16342E-1,1.2370514E-1,-5.6001633E-1,6.345322E-1,4.753564E-1,-6.644234E-2,-2.2037392E-2,4.4047484E-1,5.24632E-1,1.02272056E-1,5.570816E-1,7.5875497E-1,-1.8748407E-1,7.335978E-1,-5.71406E-1,5.113853E-1,7.5402725E-1,9.490455E-3,5.211249E-1,-4.1049275E-1,-4.299902E-1,3.8840648E-2],"categories":[],"categories_nodes":[],"categories_segments":[],"categories_sizes":[],"default_left":[1,1,0,0,1,1,0,0,0,0,0,1,1,1,0,0,0,0,0,0,0,0,0,0,0,0,0,0,0,0,0],"id":54,"left_children":[1,3,5,7,9,11,13,15,17,19,21,23,25,27,29,-1,-1,-1,-1,-1,-1,-1,-1,-1,-1,-1,-1,-1,-1,-1,-1],"loss_changes":[1.5826578E2,3.295221E1,4.1962784E1,4.2881416E1,8.201172E0,1.0811272E1,1.3910936E1,5.3103405E1,5.185913E0,3.2634277E0,7.396166E0,2.9894485E0,5.939553E-1,2.280077E0,2.5918793E1,0E0,0E0,0E0,0E0,0E0,0E0,0E0,0E0,0E0,0E0,0E0,0E0,0E0,0E0,0E0,0E0],"parents":[2147483647,0,0,1,1,2,2,3,3,4,4,5,5,6,6,7,7,8,8,9,9,10,10,11,11,12,12,13,13,14,14],"right_children":[2,4,6,8,10,12,14,16,18,20,22,24,26,28,30,-1,-1,-1,-1,-1,-1,-1,-1,-1,-1,-1,-1,-1,-1,-1,-1],"split_conditions":[5E-1,4.525E2,3.5E0,2.78E2,4.307E3,4.7E1,4.5E0,2.45E2,1.6505E3,1.808E3,2.9285E3,4.07E2,4.002E3,5.85E1,5.5E0,-1.1018696E-3,2.2023743E-2,2.62316E-2,5.113603E-3,2.785408E-2,3.793775E-2,-9.374204E-3,3.667989E-2,-2.85703E-2,2.5569266E-2,3.7701365E-2,4.7452273E-4,2.6056245E-2,-2.0524638E-2,-2.149951E-2,1.9420324E-3],"split_indices":[0,6,8,3,4,6,8,7,5,6,6,3,4,1,8,0,0,0,0,0,0,0,0,0,0,0,0,0,0,0,0],"split_type":[0,0,0,0,0,0,0,0,0,0,0,0,0,0,0,0,0,0,0,0,0,0,0,0,0,0,0,0,0,0,0],"sum_hessian":[3.0269255E3,2.0741533E3,9.527722E2,1.6011365E3,4.7301672E2,2.2708185E2,7.2569037E2,1.0441946E3,5.569419E2,4.3577158E2,3.7245167E1,2.2003369E2,7.0481534E0,4.9960926E1,6.7572943E2,6.3957E2,4.046246E2,5.2559375E2,3.1348139E1,3.1119135E2,1.24580215E2,2.5120419E1,1.2124747E1,2.1818097E2,1.8527179E0,5.743712E0,1.3044413E0,4.789794E1,2.0629838E0,1.5105257E2,5.246769E2],"tree_param":{"num_deleted":"0","num_feature":"10","num_nodes":"31","size_leaf_vector":"0"}},{"base_weights":[1.9860698E-1,1.4822228E-2,4.6831825E-1,9.037791E-2,-2.8141317E-1,7.064947E-1,3.763853E-1,2.0052256E-1,-2.1306151E-1,-3.9037332E-1,1.232813E-2,7.2585845E-1,-3.4410864E-1,3.9108414E-3,4.085486E-1,3.289586E-1,-1.6731572E-1,-1.3714717E-1,-3.9401957E-1,-3.107564E-1,-5.19562E-1,2.0884882E-1,-5.146094E-1,-4.2322373E-1,7.3174876E-1,2.367136E-1,-5.4844195E-1,4.2618968E-2,-5.8512753E-1,6.5466756E-1,3.171087E-1],"categories":[],"categories_nodes":[],"categories_segments":[],"categories_sizes":[],"default_left":[1,1,0,1,0,1,0,1,0,0,0,0,0,0,0,0,0,0,0,0,0,0,0,0,0,0,0,0,0,0,0],"id":55,"left_children":[1,3,5,7,9,11,13,15,17,19,21,23,25,27,29,-1,-1,-1,-1,-1,-1,-1,-1,-1,-1,-1,-1,-1,-1,-1,-1],"loss_changes":[1.4999652E2,4.033161E1,2.6586761E1,4.802379E1,1.1725597E1,7.1745605E0,1.062426E1,4.98401E1,5.204756E0,2.5863495E0,1.0468535E1,2.5740967E0,9.414405E-1,1.6554438E0,1.816681E1,0E0,0E0,0E0,0E0,0E0,0E0,0E0,0E0,0E0,0E0,0E0,0E0,0E0,0E0,0E0,0E0],"parents":[2147483647,0,0,1,1,2,2,3,3,4,4,5,5,6,6,7,7,8,8,9,9,10,10,11,11,12,12,13,13,14,14],"right_children":[2,4,6,8,10,12,14,16,18,20,22,24,26,28,30,-1,-1,-1,-1,-1,-1,-1,-1,-1,-1,-1,-1,-1,-1,-1,-1],"split_conditions":[5E-1,4.525E2,3.5E0,3.4E2,1.2415E3,4.7E1,4.5E0,4.015E2,1.3025E3,1.3045E3,2.5025E3,3E0,9E0,5E-1,5.5E0,1.644793E-2,-8.365787E-3,-6.857359E-3,-1.970098E-2,-1.553782E-2,-2.5978101E-2,1.0442441E-2,-2.573047E-2,-2.1161187E-2,3.658744E-2,1.183568E-2,-2.7422098E-2,2.1309485E-3,-2.9256377E-2,3.2733377E-2,1.5855435E-2],"split_indices":[0,6,8,3,4,6,8,7,3,6,6,1,7,6,8,0,0,0,0,0,0,0,0,0,0,0,0,0,0,0,0],"split_type":[0,0,0,0,0,0,0,0,0,0,0,0,0,0,0,0,0,0,0,0,0,0,0,0,0,0,0,0,0,0,0],"sum_hessian":[3.025166E3,1.7998083E3,1.2253578E3,1.4346035E3,3.6520483E2,3.393911E2,8.859666E2,1.0527925E3,3.8181107E2,2.661503E2,9.905452E1,3.335525E2,5.838623E0,7.0511635E1,8.15455E2,7.8040753E2,2.7238492E2,2.7021158E2,1.1159949E2,1.6677501E2,9.93753E1,7.258696E1,2.646756E1,1.3397719E0,3.322127E2,1.4782356E0,4.3603873E0,6.7034195E1,3.4774451E0,2.1922664E2,5.9622833E2],"tree_param":{"num_deleted":"0","num_feature":"10","num_nodes":"31","size_leaf_vector":"0"}},{"base_weights":[-6.0224086E-1],"categories":[],"categories_nodes":[],"categories_segments":[],"categories_sizes":[],"default_left":[0],"id":56,"left_children":[-1],"loss_changes":[0E0],"parents":[2147483647],"right_children":[-1],"split_conditions":[-3.0112043E-2],"split_indices":[0],"split_type":[0],"sum_hessian":[1.9577878E3],"tree_param":{"num_deleted":"0","num_feature":"10","num_nodes":"1","size_leaf_vector":"0"}},{"base_weights":[1.8556015E-1,3.3374006E-1,-1.3905542E-1,3.6047333E-1,-2.3166879E-1,-5.131288E-1,-2.47144E-2,2.940358E-1,5.969452E-1,-3.9107832E-1,7.192678E-1,-5.528981E-1,6.1569655E-1,4.53392E-1,-6.146836E-2,1.8450159E-1,4.9279332E-1,5.392322E-1,7.3757094E-1,-5.1409143E-1,7.2396725E-1,-5.6450474E-1,5.0682795E-1,7.3401475E-1,6.471212E-3,4.969548E-1,-4.078667E-1,-4.1994074E-1,3.9909862E-2],"categories":[],"categories_nodes":[],"categories_segments":[],"categories_sizes":[],"default_left":[1,1,0,1,1,1,0,0,0,1,0,1,1,1,0,0,0,0,0,0,0,0,0,0,0,0,0,0,0],"id":57,"left_children":[1,3,5,7,9,11,13,15,17,19,-1,21,23,25,27,-1,-1,-1,-1,-1,-1,-1,-1,-1,-1,-1,-1,-1,-1],"loss_changes":[1.44688E2,3.1294525E1,4.0327194E1,3.0806396E1,1.4504956E1,1.0250206E1,1.273958E1,3.3468216E1,3.1047974E0,1.1483616E1,0E0,2.9153137E0,5.708606E-1,2.14466E0,2.4461178E1,0E0,0E0,0E0,0E0,0E0,0E0,0E0,0E0,0E0,0E0,0E0,0E0,0E0,0E0],"parents":[2147483647,0,0,1,1,2,2,3,3,4,4,5,5,6,6,7,7,8,8,9,9,11,11,12,12,13,13,14,14],"right_children":[2,4,6,8,10,12,14,16,18,20,-1,22,24,26,28,-1,-1,-1,-1,-1,-1,-1,-1,-1,-1,-1,-1,-1,-1],"split_conditions":[5E-1,4.071E3,3.5E0,4.455E2,2.9285E3,4.7E1,4.5E0,2.78E2,1.808E3,4.2615E3,3.596339E-2,4.07E2,4.002E3,5.85E1,5.5E0,9.22508E-3,2.4639666E-2,2.696161E-2,3.687855E-2,-2.5704572E-2,3.6198363E-2,-2.8225238E-2,2.5341397E-2,3.6700737E-2,3.235606E-4,2.484774E-2,-2.0393334E-2,-2.0997038E-2,1.9954932E-3],"split_indices":[0,4,8,6,6,6,8,3,6,7,0,3,4,1,8,0,0,0,0,0,0,0,0,0,0,0,0,0,0],"split_type":[0,0,0,0,0,0,0,0,0,0,0,0,0,0,0,0,0,0,0,0,0,0,0,0,0,0,0,0,0],"sum_hessian":[3.0060078E3,2.063869E3,9.421391E2,1.971038E3,9.283087E1,2.1974443E2,7.2239465E2,1.5404788E3,4.3055914E2,8.000761E1,1.2823269E1,2.1275899E2,6.985446E0,5.0759834E1,6.716348E2,9.943991E2,5.460797E2,3.0870193E2,1.2185721E2,7.254347E1,7.4641314E0,2.1091624E2,1.842749E0,5.677902E0,1.3075435E0,4.8718616E1,2.041216E0,1.4737521E2,5.242596E2],"tree_param":{"num_deleted":"0","num_feature":"10","num_nodes":"29","size_leaf_vector":"0"}},{"base_weights":[1.9280618E-1,1.6451225E-2,4.5250946E-1,-6.4798445E-2,2.7943942E-1,6.89924E-1,3.624568E-1,3.7556234E-1,-1.2102822E-1,3.9146617E-1,-3.3012706E-1,7.0892787E-1,-3.3643144E-1,3.9675436E-3,3.9353254E-1,7.9020727E-1,1.9137762E-1,-2.2772439E-1,2.0476322E-1,4.5883787E-1,-4.386656E-1,-4.7900382E-2,-5.64112E-1,-4.2620265E-1,7.1488845E-1,2.3215365E-1,-5.404918E-1,4.178074E-2,-5.7290804E-1,6.368523E-1,3.0466858E-1],"categories":[],"categories_nodes":[],"categories_segments":[],"categories_sizes":[],"default_left":[1,1,0,0,1,1,0,0,1,1,0,0,0,0,0,0,0,0,0,0,0,0,0,0,0,0,0,0,0,0,0],"id":58,"left_children":[1,3,5,7,9,11,13,15,17,19,21,23,25,27,29,-1,-1,-1,-1,-1,-1,-1,-1,-1,-1,-1,-1,-1,-1,-1,-1],"loss_changes":[1.3759871E2,3.827549E1,2.5727951E1,3.3935158E1,2.8999893E1,6.734253E0,9.835762E0,1.1702995E1,4.226116E1,2.0200947E1,4.343205E0,2.5192413E0,9.06621E-1,1.5825217E0,1.7376022E1,0E0,0E0,0E0,0E0,0E0,0E0,0E0,0E0,0E0,0E0,0E0,0E0,0E0,0E0,0E0,0E0],"parents":[2147483647,0,0,1,1,2,2,3,3,4,4,5,5,6,6,7,7,8,8,9,9,10,10,11,11,12,12,13,13,14,14],"right_children":[2,4,6,8,10,12,14,16,18,20,22,24,26,28,30,-1,-1,-1,-1,-1,-1,-1,-1,-1,-1,-1,-1,-1,-1,-1,-1],"split_conditions":[5E-1,6.685E2,3.5E0,1.25E1,1.3725E3,4.7E1,4.5E0,5.5E0,5.805E2,2.582E3,2.4595E3,3E0,9E0,5E-1,5.5E0,3.9510366E-2,9.568881E-3,-1.1386219E-2,1.0238161E-2,2.2941893E-2,-2.193328E-2,-2.3950192E-3,-2.8205601E-2,-2.1310134E-2,3.5744425E-2,1.1607683E-2,-2.7024591E-2,2.089037E-3,-2.8645402E-2,3.1842615E-2,1.5233429E-2],"split_indices":[0,4,8,1,6,6,8,8,5,7,6,1,7,6,8,0,0,0,0,0,0,0,0,0,0,0,0,0,0,0,0],"split_type":[0,0,0,0,0,0,0,0,0,0,0,0,0,0,0,0,0,0,0,0,0,0,0,0,0,0,0,0,0,0,0],"sum_hessian":[3.0035034E3,1.7894304E3,1.214073E3,1.367651E3,4.217794E2,3.320352E2,8.8203784E2,1.5421837E2,1.2134326E3,3.566007E2,6.517866E1,3.263027E2,5.732508E0,7.0450455E1,8.115874E2,4.6421623E1,1.07796745E2,9.143014E2,2.991312E2,3.3024594E2,2.6354776E1,3.008981E1,3.5088844E1,1.3361931E0,3.249665E2,1.4776305E0,4.2548776E0,6.698714E1,3.463317E0,2.1546176E2,5.961256E2],"tree_param":{"num_deleted":"0","num_feature":"10","num_nodes":"31","size_leaf_vector":"0"}},{"base_weights":[-5.978596E-1],"categories":[],"categories_nodes":[],"categories_segments":[],"categories_sizes":[],"default_left":[0],"id":59,"left_children":[-1],"loss_changes":[0E0],"parents":[2147483647],"right_children":[-1],"split_conditions":[-2.9892981E-2],"split_indices":[0],"split_type":[0],"sum_hessian":[1.9012318E3],"tree_param":{"num_deleted":"0","num_feature":"10","num_nodes":"1","size_leaf_vector":"0"}},{"base_weights":[1.8010463E-1,3.2175115E-1,-1.3210753E-1,2.4661554E-1,5.1380074E-1,-5.061678E-1,-2.1013355E-2,1.2618697E-1,4.6333915E-1,5.7803226E-1,2.8649384E-1,-5.46012E-1,5.9802336E-1,4.3283206E-1,-5.6630507E-2,-5.1743053E-2,4.181395E-1,4.902619E-1,4.828115E-2,5.242699E-1,6.9862187E-1,8.7238565E-2,6.13627E-1,-5.578516E-1,5.0253826E-1,7.154357E-1,3.5633058E-3,4.7437102E-1,-4.0524742E-1,-4.0996957E-1,4.094301E-2],"categories":[],"categories_nodes":[],"categories_segments":[],"categories_sizes":[],"default_left":[1,1,0,0,0,1,0,0,0,0,1,1,1,1,0,0,0,0,0,0,0,0,0,0,0,0,0,0,0,0,0],"id":60,"left_children":[1,3,5,7,9,11,13,15,17,19,21,23,25,27,29,-1,-1,-1,-1,-1,-1,-1,-1,-1,-1,-1,-1,-1,-1,-1,-1],"loss_changes":[1.3210324E2,2.9519424E1,3.874781E1,3.8534714E1,8.256256E0,9.72086E0,1.1665554E1,4.9469112E1,5.87426E0,2.5431213E0,8.3596E0,2.8453598E0,5.498233E-1,2.0206032E0,2.3068945E1,0E0,0E0,0E0,0E0,0E0,0E0,0E0,0E0,0E0,0E0,0E0,0E0,0E0,0E0,0E0,0E0],"parents":[2147483647,0,0,1,1,2,2,3,3,4,4,5,5,6,6,7,7,8,8,9,9,10,10,11,11,12,12,13,13,14,14],"right_children":[2,4,6,8,10,12,14,16,18,20,22,24,26,28,30,-1,-1,-1,-1,-1,-1,-1,-1,-1,-1,-1,-1,-1,-1,-1,-1],"split_conditions":[5E-1,2.585E2,3.5E0,2.475E2,1.311E3,4.7E1,4.5E0,2.475E2,1.6505E3,1.318E3,6.085E2,4.07E2,4.002E3,5.85E1,5.5E0,-2.5871526E-3,2.0906975E-2,2.4513096E-2,2.4140577E-3,2.6213495E-2,3.4931093E-2,4.3619284E-3,3.0681351E-2,-2.789258E-2,2.5126914E-2,3.5771783E-2,1.781653E-4,2.371855E-2,-2.0262372E-2,-2.0498479E-2,2.0471506E-3],"split_indices":[0,6,8,3,4,6,8,7,5,6,7,3,4,1,8,0,0,0,0,0,0,0,0,0,0,0,0,0,0,0,0],"split_type":[0,0,0,0,0,0,0,0,0,0,0,0,0,0,0,0,0,0,0,0,0,0,0,0,0,0,0,0,0,0,0],"sum_hessian":[2.985194E3,2.0535122E3,9.316818E2,1.4776825E3,5.7582983E2,2.1252892E2,7.1915295E2,9.508809E2,5.268016E2,4.4776044E2,1.2806938E2,2.0561491E2,6.914002E0,5.1519703E1,6.6763324E2,5.913229E2,3.5955804E2,4.9454187E2,3.2259697E1,3.1338962E2,1.3437082E2,8.037812E1,4.7691257E1,2.0378189E2,1.8330116E0,5.603705E0,1.3102973E0,4.950023E1,2.0194736E0,1.4377715E2,5.238561E2],"tree_param":{"num_deleted":"0","num_feature":"10","num_nodes":"31","size_leaf_vector":"0"}},{"base_weights":[1.8733238E-1,1.8208353E-2,4.374294E-1,-4.1139428E-2,3.5958138E-1,6.7453414E-1,3.491441E-1,8.244621E-2,-2.2979884E-1,5.048322E-1,-2.6718694E-1,6.932208E-1,-3.2894823E-1,3.616237E-1,-4.6947512E-1,2.2009674E-1,-1.8552569E-1,-1.2112257E-1,-3.6629727E-1,5.9444004E-1,-4.016696E-1,-3.484269E-2,-5.9728354E-1,-4.290299E-1,6.9926554E-1,2.277809E-1,-5.328219E-1,2.1390425E-2,3.9095685E-1,9.2454076E-2,-5.576656E-1],"categories":[],"categories_nodes":[],"categories_segments":[],"categories_sizes":[],"default_left":[1,1,0,1,0,1,1,0,0,1,1,0,0,0,0,0,0,0,0,0,0,0,0,0,0,0,0,0,0,0,0],"id":61,"left_children":[1,3,5,7,9,11,13,15,17,19,21,23,25,27,29,-1,-1,-1,-1,-1,-1,-1,-1,-1,-1,-1,-1,-1,-1,-1,-1],"loss_changes":[1.261449E2,3.6084034E1,2.4950455E1,3.540189E1,2.4148666E1,6.3293457E0,9.147644E0,3.3889847E1,8.869644E0,1.7662052E1,3.8356016E0,2.4690857E0,8.734873E-1,8.636139E0,7.270675E-1,0E0,0E0,0E0,0E0,0E0,0E0,0E0,0E0,0E0,0E0,0E0,0E0,0E0,0E0,0E0,0E0],"parents":[2147483647,0,0,1,1,2,2,3,3,4,4,5,5,6,6,7,7,8,8,9,9,10,10,11,11,12,12,13,13,14,14],"right_children":[2,4,6,8,10,12,14,16,18,20,22,24,26,28,30,-1,-1,-1,-1,-1,-1,-1,-1,-1,-1,-1,-1,-1,-1,-1,-1],"split_conditions":[5E-1,1.3085E3,3.5E0,1.35E1,1.3725E3,4.7E1,3.5E0,1.985E2,4.565E2,2.582E3,2.8985E3,3E0,9E0,4.5E0,1.65E1,1.1004837E-2,-9.276285E-3,-6.0561285E-3,-1.8314864E-2,2.9722003E-2,-2.008348E-2,-1.7421345E-3,-2.9864177E-2,-2.1451496E-2,3.4963276E-2,1.1389045E-2,-2.6641095E-2,1.0695213E-3,1.9547842E-2,4.622704E-3,-2.788328E-2],"split_indices":[0,4,8,6,6,6,7,3,6,7,6,1,7,8,1,0,0,0,0,0,0,0,0,0,0,0,0,0,0,0,0],"split_type":[0,0,0,0,0,0,0,0,0,0,0,0,0,0,0,0,0,0,0,0,0,0,0,0,0,0,0,0,0,0,0],"sum_hessian":[2.9815193E3,1.7793414E3,1.2021779E3,1.5165657E3,2.6277582E2,3.243749E2,8.77803E2,9.166538E2,5.9991187E2,2.1349405E2,4.928176E1,3.1874844E2,5.626473E0,8.65172E2,1.2631013E1,6.056996E2,3.1095422E2,3.3504535E2,2.6486652E2,1.9460187E2,1.8892181E1,2.957232E1,1.970944E1,1.3327785E0,3.1741565E2,1.4767005E0,4.1497726E0,6.880751E1,7.9636444E2,1.7068725E0,1.0924141E1],"tree_param":{"num_deleted":"0","num_feature":"10","num_nodes":"31","size_leaf_vector":"0"}},{"base_weights":[-5.936932E-1],"categories":[],"categories_nodes":[],"categories_segments":[],"categories_sizes":[],"default_left":[0],"id":62,"left_children":[-1],"loss_changes":[0E0],"parents":[2147483647],"right_children":[-1],"split_conditions":[-2.9684661E-2],"split_indices":[0],"split_type":[0],"sum_hessian":[1.8459976E3],"tree_param":{"num_deleted":"0","num_feature":"10","num_nodes":"1","size_leaf_vector":"0"}},{"base_weights":[1.7501228E-1,3.104935E-1,-1.25143E-1,3.3628303E-1,-2.371998E-1,-4.994154E-1,-1.7222945E-2,2.7353597E-1,5.629704E-1,-3.8922098E-1,6.903957E-1,-5.3933585E-1,5.813951E-1,4.1344073E-1,-5.1688414E-2,1.6919054E-1,4.723787E-1,5.0574464E-1,7.040416E-1,-5.076608E-1,6.8140167E-1,-5.514246E-1,4.984989E-1,6.9814223E-1,7.6148985E-4,4.5313215E-1,-4.0276238E-1,-4.0311456E-1,4.373608E-2],"categories":[],"categories_nodes":[],"categories_segments":[],"categories_sizes":[],"default_left":[1,1,0,1,1,1,0,0,0,1,0,1,1,1,0,0,0,0,0,0,0,0,0,0,0,0,0,0,0],"id":63,"left_children":[1,3,5,7,9,11,13,15,17,19,-1,21,23,25,27,-1,-1,-1,-1,-1,-1,-1,-1,-1,-1,-1,-1,-1,-1],"loss_changes":[1.2058031E2,2.8931656E1,3.7255592E1,2.7599884E1,1.3304672E1,9.221024E0,1.0665721E1,3.1668045E1,3.051178E0,1.0498727E1,0E0,2.7792397E0,5.305741E-1,1.9075851E0,2.2314116E1,0E0,0E0,0E0,0E0,0E0,0E0,0E0,0E0,0E0,0E0,0E0,0E0,0E0,0E0],"parents":[2147483647,0,0,1,1,2,2,3,3,4,4,5,5,6,6,7,7,8,8,9,9,11,11,12,12,13,13,14,14],"right_children":[2,4,6,8,10,12,14,16,18,20,-1,22,24,26,28,-1,-1,-1,-1,-1,-1,-1,-1,-1,-1,-1,-1,-1,-1],"split_conditions":[5E-1,4.071E3,3.5E0,4.455E2,2.9285E3,4.7E1,4.5E0,1.005E2,1.808E3,4.2615E3,3.4519788E-2,4.07E2,4.002E3,5.85E1,5.5E0,8.459527E-3,2.3618935E-2,2.5287231E-2,3.5202082E-2,-2.538304E-2,3.4070086E-2,-2.7571231E-2,2.4924945E-2,3.4907114E-2,3.8074493E-5,2.2656608E-2,-2.013812E-2,-2.0155728E-2,2.186804E-3],"split_indices":[0,4,8,6,6,6,8,7,6,7,0,3,4,1,8,0,0,0,0,0,0,0,0,0,0,0,0,0,0],"split_type":[0,0,0,0,0,0,0,0,0,0,0,0,0,0,0,0,0,0,0,0,0,0,0,0,0,0,0,0,0],"sum_hessian":[2.9632253E3,2.0416503E3,9.215751E2,1.950206E3,9.144432E1,2.0544691E2,7.161282E2,1.5291454E3,4.2106058E2,7.906669E1,1.2377633E1,